{"version":"0.5.4","metadata":{"date":{"year":2025,"month":4,"day":29,"hour":18,"minute":38,"second":50},"loudness":-20.142805099487305,"gain":0.04240191405654724,"name":"Ampeg SVT - MD 421","modeled_by":"tone3000","gear_type":"amp","gear_make":"tz-make","gear_model":"tz-model","tone_type":"overdrive","input_level_dbu":null,"output_level_dbu":null,"training":{"settings":{"ignore_checks":false},"data":{"latency":{"manual":null,"calibration":{"algorithm_version":1,"delays":[2],"safety_factor":1,"recommended":1,"warnings":{"matches_lookahead":false,"disagreement_too_high":false}}},"checks":{"version":3,"passed":true}},"validation_esr":0.0016947154423791217}},"architecture":"WaveNet","config":{"layers":[{"input_size":1,"condition_size":1,"head_size":8,"channels":16,"kernel_size":3,"dilations":[1,2,4,8,16,32,64,128,256,512],"activation":"Tanh","gated":false,"head_bias":false},{"input_size":16,"condition_size":1,"head_size":1,"channels":8,"kernel_size":3,"dilations":[1,2,4,8,16,32,64,128,256,512],"activation":"Tanh","gated":false,"head_bias":true}],"head":null,"head_scale":0.02},"weights":[0.0007289619534276426,0.39612245559692383,-0.6659074425697327,-0.5276296734809875,-0.11788783222436905,-0.00020238118304405361,-0.0005142076406627893,0.5583561062812805,0.0003870738437399268,0.18114081025123596,-0.16829179227352142,0.0009067522478289902,-0.8186690807342529,-0.6072604060173035,-0.0370267853140831,-0.006769406143575907,-0.08185247331857681,-0.07058963179588318,-0.08118399977684021,-0.06981489062309265,0.09278570115566254,-0.008086065761744976,-0.02835693024098873,0.07067793607711792,0.09967347234487534,0.018364282324910164,0.09030649811029434,-0.00914823915809393,-0.08330065757036209,-0.07348563522100449,0.07170554995536804,0.15675398707389832,0.0002962656144518405,-0.132343590259552,-0.1227031722664833,-0.10098130255937576,-0.01381473708897829,0.12129784375429153,0.1030193567276001,-0.05396217852830887,0.05010167136788368,-0.09391215443611145,0.16192181408405304,-0.14389163255691528,-0.07373283058404922,-0.20241530239582062,0.09800691902637482,0.05305817350745201,0.06319890171289444,0.030889898538589478,0.08121289312839508,0.2671537697315216,0.058900896459817886,-0.019392332062125206,0.22082220017910004,-0.08163967728614807,-0.010074196383357048,0.013654816895723343,-0.08774854242801666,-0.11241704225540161,0.19787180423736572,0.0530565045773983,-0.056822724640369415,0.06477180123329163,0.016667360439896584,-0.003159463405609131,0.010726462118327618,0.040161434561014175,0.14122691750526428,0.16666291654109955,-0.12325875461101532,-0.10647598654031754,0.01476052962243557,0.11004167795181274,0.07026410102844238,0.09282868355512619,0.031101109459996223,-0.17098860442638397,-0.006460952572524548,-0.04956379160284996,-0.0075039342045784,0.13023142516613007,0.09377160668373108,-0.09264526516199112,0.015298488549888134,-0.014392063952982426,0.029509633779525757,-0.027721643447875977,0.02562454529106617,-0.07111245393753052,0.013355693779885769,0.06435736268758774,0.13808149099349976,0.07371605932712555,-0.1392844021320343,-0.1310279369354248,0.04620271176099777,0.012992297299206257,-0.14859193563461304,-0.02646266482770443,0.12308574467897415,0.04131157323718071,-0.10426278412342072,-0.046104174107313156,-0.19016791880130768,-0.041779547929763794,-0.12332607060670853,-0.1804402768611908,-0.0366041362285614,-0.17655347287654877,-0.10424552112817764,-0.15168559551239014,-0.06065385416150093,0.05858407914638519,0.042578790336847305,-0.10120325535535812,0.07069661468267441,-0.08552088588476181,-0.0032008718699216843,-0.07602636516094208,0.14400997757911682,-0.016396284103393555,-0.17987824976444244,0.155008926987648,-0.1476762592792511,-0.17363299429416656,0.06300733238458633,-0.016867436468601227,-0.020379941910505295,-0.1234729066491127,0.021356023848056793,0.018620925024151802,-0.038820259273052216,0.015729179605841637,0.2112915962934494,-0.10267322510480881,-0.023125063627958298,0.0531451441347599,0.055273931473493576,0.08977074176073074,0.22002634406089783,-0.02128482051193714,0.13565348088741302,-0.09784289449453354,-0.01973498798906803,-0.11673881858587265,0.06384209543466568,-0.004844054114073515,-0.09803508222103119,-0.22268123924732208,-0.04957815632224083,-0.14357244968414307,-0.13768303394317627,0.1695108264684677,0.03910520672798157,-0.2467745542526245,0.15691988170146942,-0.12948434054851532,-0.03877159580588341,-0.034126900136470795,-0.03547950088977814,0.07451983541250229,-0.15370875597000122,-0.11120150983333588,-0.1375020444393158,0.12764732539653778,-0.07556931674480438,0.1727914661169052,-0.25056830048561096,-0.01854843646287918,0.2448534220457077,-0.17876377701759338,0.10752211511135101,0.14934754371643066,-0.26150912046432495,0.02086188830435276,-0.08365201950073242,-0.05715320259332657,0.09625965356826782,-0.06361149996519089,-0.05553670600056648,-0.019412411376833916,-0.013381021097302437,0.16118992865085602,0.13079072535037994,0.012999726459383965,-0.04357505962252617,0.006519593298435211,-0.20949022471904755,0.22529813647270203,0.08206458389759064,0.1938333362340927,-0.24511288106441498,0.04395860806107521,-0.05133463069796562,-0.10860052704811096,-0.09208573400974274,0.1698087751865387,-0.20486901700496674,-0.01605653390288353,0.12259963899850845,-0.031051136553287506,-0.09811370074748993,0.019202349707484245,-0.17998257279396057,0.07266926765441895,-0.07971148192882538,0.034264083951711655,0.04415595531463623,-0.06731415539979935,-0.15418145060539246,-0.04249923676252365,0.016968509182333946,-0.05335821583867073,0.009200927801430225,0.02680167742073536,-0.10030992329120636,-0.06603165715932846,0.12223346531391144,-0.10188433527946472,-0.0006655058241449296,0.15029245615005493,0.06708559393882751,0.00863615982234478,-0.09568335860967636,0.002465622266754508,-0.12758058309555054,0.05069337785243988,-0.0020371517166495323,-0.030845092609524727,-0.00580210704356432,0.10629735887050629,-0.012607181444764137,0.09070256352424622,0.1626594364643097,-0.10688257217407227,0.052869707345962524,-0.11931663751602173,-0.04388481751084328,0.052754856646060944,0.06630945205688477,0.11132381111383438,-0.026352982968091965,0.01951613649725914,0.0834917426109314,-0.13172738254070282,0.11678287386894226,-0.10804761946201324,0.011732873506844044,-0.011433235369622707,-0.0724828839302063,0.017252778634428978,0.1331629455089569,0.023525020107626915,-0.06357260048389435,0.0387139692902565,-0.14030441641807556,0.05629933252930641,0.20056715607643127,-0.13085022568702698,-0.040446992963552475,-0.07562003284692764,0.10649888217449188,0.06653301417827606,0.20543916523456573,-0.01723703369498253,-0.08283241093158722,0.19684283435344696,0.13965961337089539,-0.003979198634624481,0.0720653235912323,-0.06887613236904144,-0.1311517208814621,-0.04934379830956459,-0.17607814073562622,-0.08030924201011658,0.10027992725372314,-0.12268731743097305,0.028996329754590988,-0.11099308729171753,0.03623250126838684,-0.03272334486246109,-0.07344509661197662,0.08914870768785477,0.06646134704351425,-0.02899552695453167,-0.020208928734064102,-0.0015279579674825072,0.11872421205043793,0.03454268351197243,0.021898513659834862,0.10772469639778137,0.07624660432338715,-0.04744921997189522,0.12247386574745178,-0.0583360455930233,0.05464434251189232,0.04738948121666908,0.08743267506361008,-0.08002951741218567,0.05892590805888176,0.029457557946443558,-0.07906634360551834,-0.07883114367723465,-0.05414975807070732,-0.1579243242740631,0.010522869415581226,0.002298252424225211,0.013132116757333279,-0.13786832988262177,-0.055274829268455505,0.017658105120062828,0.18139156699180603,0.010085941292345524,0.09599289298057556,0.22310857474803925,-0.021384211257100105,0.03922334685921669,0.17464293539524078,-0.08126871287822723,-0.0699702799320221,-0.05120917037129402,-0.10206452012062073,0.11624591797590256,-0.0733988881111145,0.06771078705787659,0.045229967683553696,-0.11088401824235916,0.14239652454853058,0.023267395794391632,-0.1437765508890152,-0.17567189037799835,0.11176137626171112,-0.025858184322714806,-0.048083268105983734,0.0895787850022316,0.2252480685710907,0.20225396752357483,0.23158426582813263,0.1332562118768692,0.031142279505729675,-0.010267938487231731,0.25122618675231934,0.14331302046775818,-0.04907568171620369,0.26141366362571716,0.1311941146850586,0.12986791133880615,0.009364759549498558,0.03177458792924881,-0.13183392584323883,0.016998833045363426,0.12371540814638138,0.022572392597794533,0.18077045679092407,0.023941462859511375,-0.02507038414478302,0.17501147091388702,-0.058424774557352066,0.013435901142656803,-0.20747828483581543,-0.10283000767230988,-0.13644441962242126,0.004618571139872074,0.11687878519296646,0.11746538430452347,0.016519419848918915,-0.1508851796388626,-0.06258079409599304,0.054089147597551346,-0.008302886970341206,0.21012692153453827,-0.2132158875465393,-0.11138743162155151,-0.11956394463777542,0.026164790615439415,0.121684230864048,0.10110601782798767,0.03509379178285599,0.070501409471035,0.1437976211309433,0.06528841704130173,0.10599605739116669,0.11294812709093094,-0.05228666216135025,0.15862378478050232,0.02941596508026123,0.022398024797439575,-0.008746452629566193,0.049167368561029434,-0.09470168501138687,0.008764747530221939,-0.10011998564004898,-0.19179503619670868,-0.08119724690914154,0.07637998461723328,0.002465650672093034,-0.12715736031532288,-0.0799403116106987,-0.12370448559522629,0.07202211022377014,-0.033885400742292404,-0.030833624303340912,0.16257818043231964,0.07566835731267929,-0.2065245360136032,0.10312731564044952,0.09408849477767944,0.037094730883836746,0.04652745649218559,-0.0996718779206276,0.06867726147174835,0.10054906457662582,-0.0003796338860411197,-0.0008830708684399724,0.013176457956433296,0.02004260942339897,-0.10955345630645752,-0.032447345554828644,0.030350588262081146,0.11577484756708145,-0.05538531392812729,0.022725658491253853,-0.021624095737934113,0.06610666215419769,-0.1174498200416565,0.09223653376102448,-0.09429466724395752,-0.06648453325033188,-0.058848749846220016,-0.11897262930870056,0.05430589243769646,0.23064574599266052,-0.0078757768496871,-0.0796273797750473,0.028628401458263397,-0.005197285674512386,-0.12750153243541718,0.16048534214496613,-0.16397584974765778,-0.15268073976039886,-0.04757583886384964,-0.06504020094871521,0.06752269715070724,-0.04931456595659256,0.2284800112247467,-0.12690262496471405,0.194062277674675,0.00715645169839263,0.03010578453540802,-0.16708886623382568,0.06419169157743454,0.25727006793022156,0.026380492374300957,-0.0872533842921257,0.0030325280968099833,0.045856740325689316,0.07620953023433685,-0.2302902489900589,-0.0036789642181247473,-0.12500882148742676,-0.15392880141735077,0.07204105705022812,-0.11067844927310944,0.11983431130647659,0.035120889544487,0.1105998232960701,-0.19943392276763916,0.29213544726371765,-0.053233761340379715,0.17736592888832092,0.10455626994371414,0.0534454807639122,-0.04532817378640175,0.15007947385311127,-0.16906434297561646,-0.026178376749157906,0.010641627013683319,-0.054876916110515594,-0.029145153239369392,-0.04552917182445526,-0.023380452767014503,-0.18504691123962402,0.0945722907781601,-0.00827814731746912,-0.006925265304744244,0.12546081840991974,0.08927887678146362,-0.11147817224264145,-0.0052575175650417805,-0.043730735778808594,-0.09476641565561295,0.08435285836458206,0.05618387833237648,0.08412506431341171,0.1972329318523407,-0.15362736582756042,0.06669903546571732,0.03013528138399124,0.1023695096373558,-0.029720716178417206,0.11502718180418015,0.09785773605108261,-0.020002856850624084,0.1018676683306694,-0.053160473704338074,-0.05964319407939911,0.03993604704737663,-0.006922395899891853,-0.04077792912721634,-0.0488646999001503,0.12038111686706543,0.05254687741398811,-0.06639928370714188,0.00009776488150237128,-0.030603427439928055,0.2091992348432541,-0.013846789486706257,0.187493696808815,0.004752413369715214,0.009675869718194008,-0.002054300857707858,0.06688735634088516,-0.1503838300704956,0.0003685812116600573,-0.07450519502162933,0.17690639197826385,-0.12513421475887299,-0.000782699731644243,-0.05581269413232803,0.05917346477508545,0.17800532281398773,-0.08475882560014725,-0.2240685522556305,-0.13119292259216309,0.027226058766245842,-0.1404876410961151,-0.1129584088921547,-0.03836292400956154,-0.07762717455625534,-0.0969029888510704,0.09716624021530151,0.07342009991407394,-0.008568469434976578,0.09155263751745224,0.08447682112455368,-0.367226243019104,-0.0027245325036346912,-0.0993320643901825,0.1652442216873169,-0.11520230770111084,-0.09834306687116623,0.12436264753341675,-0.07377951592206955,0.06999224424362183,-0.03359929472208023,-0.014541747979819775,0.004904772620648146,0.06691396236419678,0.015699684619903564,-0.19929450750350952,0.012903501279652119,0.08491431921720505,-0.013914001174271107,-0.38090988993644714,0.11599347740411758,-0.07280758023262024,-0.005260282661765814,0.0689820870757103,-0.000028902217309223488,0.10020456463098526,0.06646395474672318,-0.08026490360498428,-0.0738687664270401,0.005407160613685846,0.15490727126598358,-0.06865318864583969,-0.0732598751783371,0.04318000003695488,0.21829646825790405,-0.02069912850856781,-0.0785132497549057,-0.15134261548519135,0.055440567433834076,0.02959345281124115,-0.09335053712129593,0.03908136859536171,0.10132697224617004,0.09796233475208282,0.0836254134774208,-0.14162619411945343,0.06948216259479523,-0.1257251501083374,0.006231415085494518,0.18991519510746002,0.12654848396778107,-0.19980280101299286,0.11891626566648483,0.07363169640302658,0.202795147895813,-0.10329214483499527,-0.11387119442224503,-0.025325562804937363,0.15336740016937256,-0.12227506935596466,-0.0031730858609080315,0.08282717317342758,-0.06486748903989792,-0.09609723091125488,0.03147733584046364,0.12965518236160278,-0.14113925397396088,-0.16852310299873352,-0.0014632007805630565,-0.021626412868499756,0.10867810994386673,0.10262557119131088,-0.07975055277347565,0.013246001675724983,0.08945311605930328,-0.12747621536254883,0.12701843678951263,-0.036597780883312225,-0.07702597230672836,-0.03161071985960007,-0.07107442617416382,0.09412279725074768,-0.05898641049861908,-0.19340774416923523,0.0652986690402031,0.10901253670454025,-0.027549365535378456,0.11785893887281418,0.032153140753507614,0.007293135859072208,0.03252251446247101,-0.055047862231731415,-0.006767600309103727,-0.2576136589050293,-0.04379332438111305,-0.09509768337011337,0.11128740012645721,0.05313893035054207,0.005128294229507446,-0.07684580236673355,0.25028976798057556,-0.07594034820795059,0.10108130425214767,-0.22191746532917023,-0.025921689346432686,0.0618753656744957,-0.1666574776172638,0.12224660813808441,-0.12026405334472656,-0.23379941284656525,-0.10285309702157974,0.027509288862347603,0.2088305652141571,-0.00963281188160181,0.04571687802672386,0.09894883632659912,-0.03846270218491554,0.12324304133653641,-0.004534042906016111,0.026007285341620445,0.10565837472677231,-0.130361869931221,0.1191914901137352,-0.012139913626015186,0.2367844581604004,-0.14587247371673584,-0.04877356439828873,-0.14742863178253174,0.02017943002283573,0.03307817876338959,-0.057270459830760956,-0.011849110014736652,-0.022037958726286888,-0.00718105910345912,-0.03239711746573448,0.10719111561775208,-0.2048327773809433,-0.0049101803451776505,-0.015702225267887115,-0.04008852690458298,-0.02205316163599491,-0.06567546725273132,-0.35774338245391846,0.032549161463975906,-0.00956539437174797,-0.08576451241970062,-0.10060586780309677,0.20818354189395905,0.04413666948676109,0.020229656249284744,-0.25257644057273865,0.18794691562652588,-0.09989845007658005,-0.08509278297424316,0.10803595185279846,-0.0478312149643898,-0.047981515526771545,-0.03081510402262211,0.09096061438322067,0.009272622875869274,-0.05255971476435661,0.04883721098303795,0.10401330143213272,-0.04037683084607124,0.08388737589120865,0.09763175249099731,-0.15558402240276337,-0.17593581974506378,-0.11915954947471619,0.16493606567382812,-0.06831488013267517,0.09911363571882248,-0.07180912047624588,0.12580141425132751,0.026632234454154968,0.22434359788894653,-0.11749482154846191,-0.0913393646478653,0.005312977824360132,-0.07642494887113571,-0.08562055230140686,0.22060170769691467,-0.10527189075946808,-0.02873065322637558,0.014861517585814,-0.03708818182349205,-0.0035739231389015913,0.040446024388074875,0.02283145859837532,-0.10603824257850647,0.12111352384090424,-0.0675121620297432,-0.011294184252619743,0.08841678500175476,-0.18049675226211548,-0.20931880176067352,0.04568229988217354,0.19566331803798676,0.05691925436258316,0.03449020907282829,0.2063865065574646,0.19330646097660065,-0.10804545879364014,0.04902997240424156,0.03316722437739372,-0.1642940789461136,-0.1254112422466278,0.057816773653030396,0.09621649980545044,0.013305862434208393,0.028043752536177635,-0.051546674221754074,0.02910659648478031,-0.15624570846557617,-0.06620479375123978,0.1269352287054062,0.040949709713459015,-0.14463868737220764,0.0769224613904953,-0.018949255347251892,-0.04091663286089897,0.026515573263168335,0.2005188912153244,-0.16801562905311584,0.07632967829704285,0.08729476481676102,-0.10269691795110703,0.1625877171754837,0.17483381927013397,0.05831705778837204,-0.013250579126179218,0.23926466703414917,-0.12181255966424942,0.23883846402168274,-0.03747667744755745,-0.1480722725391388,0.15816017985343933,0.013604118488729,0.006299641449004412,-0.030021823942661285,-0.12387613952159882,-0.22282680869102478,-0.04925229027867317,0.013539758510887623,-0.003472790587693453,-0.012457897886633873,0.007139716763049364,0.06185419112443924,0.07370094954967499,-0.10363995283842087,0.008148093707859516,-0.1332065612077713,-0.0037891757674515247,-0.06960723549127579,0.11009065061807632,0.3227340877056122,-0.3780722916126251,0.7204434275627136,-0.5916200876235962,-0.0070356219075620174,0.7419738173484802,0.8546434640884399,-0.46463221311569214,0.09684685617685318,0.08833780884742737,-0.4386424720287323,-0.3265574872493744,0.2463332563638687,-0.5950073003768921,0.08823103457689285,0.4545189142227173,0.10079360008239746,0.1819860190153122,-0.04103179648518562,0.13384445011615753,0.11849411576986313,-0.07194532454013824,0.20277778804302216,-0.07249552011489868,-0.035481736063957214,-0.09137564897537231,-0.041689008474349976,-0.1314798891544342,0.11198120564222336,-0.02125486172735691,0.1819753646850586,-0.1022697240114212,0.12071622908115387,0.0076888808980584145,-0.2764427065849304,0.04235227778553963,0.09048629552125931,-0.057627830654382706,-0.108269102871418,-0.01867377944290638,0.11196024715900421,0.21245603263378143,0.0453454926609993,-0.11683281511068344,-0.017709290608763695,-0.09594511240720749,0.0812574028968811,0.30850741267204285,-0.11298245191574097,0.004832741338759661,0.03923266381025314,0.17734813690185547,-0.1296112984418869,-0.0619794987142086,0.048811037093400955,-0.04854796826839447,-0.08325745910406113,-0.05143803730607033,0.2045973837375641,-0.062031328678131104,0.3229075074195862,0.27075138688087463,-0.004753196612000465,0.1320713311433792,-0.042506806552410126,-0.3849968910217285,0.29916343092918396,-0.3057265281677246,-0.06892241537570953,0.09388790279626846,0.03750140219926834,-0.07101476937532425,-0.2394845187664032,0.19341833889484406,-0.24670575559139252,0.1283600926399231,0.17142145335674286,0.26129403710365295,-0.2228333055973053,-0.02044527791440487,0.09063191711902618,-0.23293204605579376,-0.08522699773311615,0.024130675941705704,0.13399052619934082,0.3120686113834381,0.025868508964776993,-0.0006008828640915453,0.18871551752090454,0.43692925572395325,-0.08088560402393341,0.06501543521881104,0.12959815561771393,0.03454020619392395,0.04440239071846008,-0.028829853981733322,-0.11434213817119598,0.0037803782615810633,0.06150757521390915,-0.02330482006072998,0.18456943333148956,0.25476130843162537,0.19497527182102203,-0.019659440964460373,0.19785916805267334,-0.006507823243737221,-0.2216581255197525,-0.1576640009880066,-0.008204958401620388,-0.16410045325756073,0.08735409379005432,0.04090700298547745,-0.06812604516744614,0.03033023327589035,0.1978314220905304,0.27183589339256287,-0.2034609317779541,-0.2900243103504181,0.002691934583708644,0.06089770048856735,-0.05884997546672821,-0.3590582013130188,-0.14117714762687683,0.14555059373378754,0.24680966138839722,-0.000982514233328402,0.02290434017777443,0.0018014020752161741,0.05356147885322571,0.19988925755023956,0.1318543553352356,-0.1792750358581543,-0.20836330950260162,-0.07674594968557358,0.17407648265361786,0.14069701731204987,0.1371777206659317,-0.3302525281906128,0.24288968741893768,-0.0539441779255867,-0.02751420997083187,-0.0542663112282753,-0.09619609266519547,-0.008483042009174824,-0.14409010112285614,-0.08357056230306625,-0.00030008581234142184,-0.19634859263896942,0.14748196303844452,0.08048118650913239,-0.04849253222346306,0.009228412993252277,-0.2904430627822876,-0.17499101161956787,0.22567974030971527,-0.03461156040430069,0.10169922560453415,-0.13351435959339142,0.04932243004441261,0.12484463304281235,-0.11331925541162491,-0.05779712647199631,0.26747143268585205,-0.26514434814453125,-0.13692647218704224,0.06068193167448044,0.16975443065166473,-0.05012492090463638,0.01411805022507906,0.13104917109012604,0.01412233430892229,0.017912056297063828,0.07268471270799637,0.14474643766880035,-0.11637558788061142,-0.12580019235610962,0.0893653929233551,0.1940351277589798,-0.2708839178085327,0.13514281809329987,0.003392220241948962,-0.08334251493215561,-0.010019171051681042,0.04983461648225784,0.04062509909272194,-0.10239903628826141,-0.17675022780895233,0.04289305582642555,-0.0026861003134399652,0.08956678956747055,-0.002142053097486496,0.3212273418903351,0.028778566047549248,-0.10337308794260025,0.06779620051383972,-0.013237891718745232,-0.003877930110320449,-0.03233492001891136,-0.015839355066418648,0.02631085179746151,0.11292050033807755,-0.1580202579498291,0.01055370457470417,-0.15093493461608887,-0.3232675790786743,-0.11276231706142426,-0.177524596452713,-0.15961818397045135,-0.017055166885256767,-0.15002675354480743,0.2973903715610504,0.004736476577818394,0.016005776822566986,-0.10516911000013351,0.09109679609537125,0.12677766382694244,0.061975933611392975,0.019471589475870132,-0.16944698989391327,0.2612561881542206,0.3914777338504791,0.001351441373117268,-0.0741957351565361,0.0666545182466507,-0.113813117146492,-0.22966431081295013,-0.21698975563049316,0.15272493660449982,-0.10667281597852707,0.14975407719612122,0.13529066741466522,-0.012473304755985737,-0.06449884921312332,-0.05967336520552635,-0.04887573793530464,0.07730062305927277,-0.004546692129224539,0.045837484300136566,-0.289183646440506,0.3491285443305969,-0.025019124150276184,0.23143021762371063,-0.0036224904470145702,-0.15707449615001678,0.047330137342214584,0.10450591892004013,0.11872027814388275,0.007123436778783798,-0.21167266368865967,0.21924659609794617,0.017826784402132034,-0.12104558199644089,0.2798732817173004,0.08463810384273529,-0.21714770793914795,0.11994632333517075,0.032130349427461624,0.06669934093952179,0.19153884053230286,-0.08212457597255707,-0.08966098725795746,0.059134338051080704,-0.07972098886966705,0.05013878643512726,-0.058683667331933975,-0.2045281082391739,0.033045265823602676,0.03441837802529335,-0.09722662717103958,0.04125428572297096,0.07964680343866348,-0.09629267454147339,0.10180307179689407,-0.11333266645669937,0.20684799551963806,-0.00859117042273283,-0.07935108244419098,-0.04183122143149376,0.11755117028951645,-0.05547889322042465,0.029741747304797173,-0.12908469140529633,0.06824734061956406,0.008618668653070927,0.06914839893579483,0.15159595012664795,0.05620119348168373,0.028174571692943573,0.02399512380361557,-0.09435897320508957,-0.0738319605588913,0.12302927672863007,0.16219176352024078,0.14808142185211182,0.024722957983613014,-0.028830520808696747,-0.12122595310211182,-0.21767255663871765,-0.20713359117507935,-0.16669131815433502,-0.029654130339622498,-0.12281738966703415,-0.09224791824817657,0.05088292807340622,-0.06291513890028,0.1646900773048401,-0.02850729413330555,0.0037868497893214226,-0.09656987339258194,-0.06563928723335266,-0.048160482197999954,-0.04488750919699669,-0.08220485597848892,0.11129235476255417,-0.034864190965890884,-0.20978780090808868,0.030254021286964417,0.046534474939107895,-0.04562092199921608,-0.006188258063048124,-0.11719318479299545,-0.18596521019935608,-0.2269504815340042,-0.08807193487882614,-0.07171335071325302,-0.07662530243396759,-0.170950248837471,0.008420956321060658,0.14636312425136566,-0.24684186279773712,-0.13679005205631256,0.07944797724485397,-0.05616621673107147,0.038974642753601074,-0.13310226798057556,0.019178738817572594,-0.08034493774175644,0.05781226605176926,0.052462100982666016,-0.131255641579628,-0.02737467549741268,0.02012542076408863,-0.06124550476670265,-0.06794809550046921,0.22281885147094727,-0.04587632417678833,0.036238398402929306,0.048779550939798355,0.11380612850189209,-0.1505742222070694,0.32276618480682373,-0.16166014969348907,-0.12053707242012024,-0.08232104033231735,0.13578008115291595,-0.18132193386554718,-0.050424620509147644,0.11190900206565857,0.04598613455891609,-0.11703170835971832,-0.08091043680906296,-0.0793609768152237,-0.050547823309898376,0.12367060035467148,0.09285710752010345,-0.18162907660007477,0.012933320365846157,-0.09227538108825684,0.08364812284708023,-0.043285638093948364,0.024957731366157532,0.04064471647143364,-0.05796545371413231,-0.07676327973604202,0.12248696386814117,-0.011353753507137299,-0.026144713163375854,0.09842962771654129,0.001078394241631031,-0.09086544066667557,0.045984745025634766,-0.07989198714494705,0.12140629440546036,-0.19094182550907135,-0.3733094334602356,-0.09667525440454483,0.018106307834386826,0.2026238590478897,0.0006788047030568123,-0.09402110427618027,0.0048221405595541,0.03845546767115593,0.13134334981441498,0.11013506352901459,0.24823591113090515,0.23154228925704956,0.15476974844932556,-0.03977740928530693,0.4711843430995941,0.13383179903030396,0.06746019423007965,0.16486875712871552,-0.03441688045859337,-0.2618802785873413,-0.14796236157417297,0.004004760179668665,-0.058730728924274445,-0.03478526696562767,0.14904655516147614,-0.09794425219297409,-0.1614743024110794,-0.04396902024745941,0.09702860563993454,-0.22359469532966614,-0.09522083401679993,-0.2592581808567047,0.1524471789598465,0.24390338361263275,0.031775448471307755,-0.03889335319399834,0.07966534048318863,0.06487064063549042,0.0901237428188324,0.03499237820506096,-0.1646793931722641,0.1320224404335022,-0.011017603799700737,-0.01618572324514389,0.09356720745563507,-0.18255850672721863,0.15163516998291016,0.02949756383895874,-0.02389855682849884,-0.15725108981132507,-0.05206132307648659,-0.2352505326271057,0.20779089629650116,0.20956486463546753,0.1255013346672058,-0.1293490082025528,-0.31791049242019653,-0.07470855861902237,0.03821425512433052,-0.17562201619148254,-0.17139294743537903,-0.12248262017965317,-0.11066056787967682,-0.055063024163246155,0.1404198706150055,0.10295871645212173,-0.04465823248028755,0.1925736516714096,0.03988739475607872,-0.1443261206150055,0.049948062747716904,0.16111862659454346,0.101710744202137,-0.044915951788425446,-0.004568175412714481,0.0802733302116394,-0.15846483409404755,0.13865523040294647,0.16555096209049225,-0.04052790626883507,-0.06294222176074982,0.15955591201782227,-0.08694276213645935,0.1129157766699791,0.12213193625211716,0.10814722627401352,-0.18102124333381653,0.15723931789398193,-0.06682625412940979,-0.19902147352695465,-0.08559612929821014,0.024874260649085045,0.08077311515808105,0.09695275127887726,0.02298097312450409,0.1395007222890854,-0.12685157358646393,-0.00414291163906455,0.06826894730329514,0.015508650802075863,0.03213321417570114,-0.12402511388063431,-0.06946106255054474,0.0449083112180233,0.07736949622631073,-0.09328355640172958,0.060054026544094086,0.20654061436653137,-0.030289582908153534,0.00844374019652605,-0.03368868678808212,-0.10603093355894089,0.08582298457622528,-0.2031526267528534,0.06146517023444176,-0.43588754534721375,0.20063874125480652,0.025908146053552628,0.12688392400741577,0.014264059253036976,0.07981298863887787,-0.038535404950380325,0.04136145859956741,-0.07654019445180893,-0.04277139902114868,-0.13162419199943542,0.10659867525100708,-0.11436644196510315,0.07231233268976212,0.023498840630054474,0.22207406163215637,0.10350946336984634,-0.18329046666622162,-0.18814526498317719,0.20707876980304718,-0.014831465668976307,-0.13753540813922882,0.11776546388864517,0.027648795396089554,-0.12797591090202332,0.008548829704523087,0.07210331410169601,0.045378558337688446,-0.21102768182754517,-0.03343361243605614,-0.07800820469856262,-0.09468677639961243,-0.17477209866046906,0.16890649497509003,0.2967916429042816,-0.13716857135295868,0.06203548610210419,-0.11383379995822906,0.2730785608291626,0.1852608323097229,0.009035627357661724,0.01721760258078575,0.10861755162477493,0.0681881532073021,0.143265962600708,-0.04171273484826088,0.29483020305633545,0.19599606096744537,0.1265649050474167,-0.10364338755607605,0.12403501570224762,-0.15859940648078918,0.29270315170288086,0.06236967071890831,0.10314103960990906,-0.023440413177013397,0.19912052154541016,-0.12272052466869354,0.08893220871686935,-0.06657829880714417,0.15759190917015076,-0.033084895461797714,0.14962570369243622,-0.15708842873573303,0.15233319997787476,0.08958999812602997,0.20022596418857574,-0.17362457513809204,-0.13940975069999695,0.05377756804227829,0.07619332522153854,-0.08451339602470398,0.2522294521331787,-0.034278612583875656,0.044616132974624634,-0.09818704426288605,0.0753798633813858,0.07750358432531357,0.14059333503246307,0.20471028983592987,-0.012618710286915302,0.28216123580932617,-0.024628249928355217,0.04153529554605484,-0.16524234414100647,0.05908801406621933,0.11746418476104736,-0.17911182343959808,0.010887383483350277,-0.28329887986183167,0.08216358721256256,0.08691096305847168,0.18644100427627563,0.11919470876455307,0.11442356556653976,-0.01843273639678955,-0.13645078241825104,0.32531729340553284,-0.016486497595906258,0.14762230217456818,0.01338451448827982,0.030077585950493813,-0.0957057997584343,-0.3025776147842407,0.01896502450108528,0.08462740480899811,-0.02083425223827362,0.1358957141637802,-0.12168298661708832,0.02940402179956436,0.12174566835165024,0.04858924821019173,-0.10649008303880692,0.10604456067085266,0.014586235396564007,0.11797471344470978,0.04051259160041809,-0.03929450735449791,-0.16153660416603088,-0.08875350654125214,-0.07436274737119675,-0.17827744781970978,-0.08809027075767517,0.0054371594451367855,0.07176868617534637,-0.11005806922912598,-0.014608019031584263,-0.01479419507086277,0.04608166962862015,-0.22457057237625122,0.15570631623268127,-0.07831868529319763,-0.017433011904358864,0.12419606745243073,-0.022780347615480423,0.009850477799773216,-0.12334204465150833,-0.05426694452762604,-0.13777242600917816,-0.12982162833213806,0.12495574355125427,-0.025510823354125023,0.08340737968683243,0.13971900939941406,-0.3107353150844574,0.2717970311641693,0.017660195007920265,-0.026120994240045547,-0.014258564449846745,0.14443770051002502,-0.1548362374305725,0.31884458661079407,0.046156805008649826,0.13306957483291626,-0.11629823595285416,0.12029111385345459,-0.1825019121170044,0.030502554029226303,-0.1014329120516777,0.0622919499874115,-0.20459985733032227,-0.0358893908560276,-0.036172229796648026,-0.04804762452840805,-0.09065404534339905,-0.08474456518888474,-0.024075806140899658,0.14319290220737457,0.015797657892107964,0.32118070125579834,-0.12074046581983566,0.05830690264701843,-0.1681789755821228,0.08711772412061691,0.10230004042387009,-0.03728837892413139,-0.14362064003944397,-0.018453210592269897,-0.29428574442863464,0.22186847031116486,0.15542635321617126,0.23002411425113678,0.06295961886644363,-0.0280756875872612,0.24208658933639526,0.2300301343202591,0.16023826599121094,0.07842924445867538,-0.11835428327322006,-0.011647792533040047,-0.18043921887874603,-0.09251681715250015,0.11895540356636047,0.002188707236200571,-0.20271384716033936,-0.20462243258953094,-0.013345316983759403,-0.08423381298780441,-0.025987112894654274,0.07355783879756927,-0.08133258670568466,-0.005599023308604956,-0.16588473320007324,0.13573898375034332,0.08750580996274948,-0.02129221335053444,0.042727477848529816,-0.14348725974559784,0.17329970002174377,0.02418280765414238,0.18762993812561035,0.20903076231479645,0.10003133863210678,0.07778764516115189,-0.08748335391283035,-0.01740894839167595,-0.05327807366847992,-0.04970119521021843,-0.08267185837030411,-0.13765276968479156,-0.07222086191177368,0.21319712698459625,0.22955061495304108,-0.16168877482414246,-0.25733470916748047,-0.24873949587345123,0.3763990104198456,-0.05431624874472618,0.12039431184530258,-0.13766421377658844,-0.06914617121219635,0.2882708013057709,-0.1964220404624939,0.05228297412395477,-0.07991930097341537,-0.08959349989891052,-0.10306257009506226,-0.17754781246185303,0.2665952146053314,-0.030556924641132355,0.17296922206878662,-0.04142976552248001,-0.17924629151821136,-0.08705154061317444,0.2361898273229599,0.08339431881904602,0.1287563592195511,0.1258317530155182,-0.2269730120897293,-0.2581334412097931,0.11923906207084656,-0.015216915868222713,0.14615091681480408,0.06839451193809509,0.163593128323555,0.04335790127515793,-0.019378725439310074,-0.001659307861700654,0.05355221405625343,-0.24747253954410553,-0.029338039457798004,0.19507582485675812,0.010843316093087196,0.0013799110893160105,-0.09597865492105484,0.16817456483840942,-0.11707235127687454,-0.09242641925811768,-0.09258323162794113,-0.14848650991916656,0.21756458282470703,-0.17052896320819855,0.015177875757217407,0.04214045777916908,0.10204246640205383,-0.07797708362340927,-0.12367509305477142,0.09316584467887878,-0.08389391750097275,-0.01519561093300581,-0.04653216525912285,-0.014136496931314468,-0.005831340327858925,-0.05079158768057823,0.12148981541395187,0.05998960882425308,0.02707572467625141,-0.010105986148118973,-0.044323015958070755,0.35120680928230286,0.011747130192816257,0.16685594618320465,0.07086489349603653,0.17955628037452698,-0.08457537740468979,0.29290205240249634,-0.016044452786445618,-0.00701903784647584,-0.055569443851709366,0.06417996436357498,-0.16282735764980316,-0.04902996867895126,0.1232161819934845,0.2501853108406067,-0.2143244445323944,-0.025565236806869507,-0.10005605965852737,0.01840226911008358,0.001762127736583352,-0.2518550157546997,0.0633004903793335,0.10062193125486374,-0.04045563563704491,0.11726580560207367,-0.09185600280761719,-0.08036495000123978,-0.13775846362113953,-0.028485281392931938,0.10290919244289398,-0.09768152981996536,0.008175859227776527,-0.046464089304208755,0.11836272478103638,-0.09322745352983475,0.08027277886867523,0.010040373541414738,0.19674405455589294,-0.02151486463844776,-0.34685879945755005,0.0671004205942154,-0.1360282599925995,-0.19615422189235687,0.051880210638046265,0.13354800641536713,0.14340610802173615,-0.12157634645700455,0.07070685178041458,0.3837663233280182,0.1469288170337677,0.18611179292201996,0.17096014320850372,0.17692817747592926,-0.17768855392932892,-0.08934755623340607,-0.14067420363426208,0.1044815257191658,0.0021347978617995977,-0.08959657698869705,-0.030666908249258995,-0.07044807821512222,0.05826129764318466,0.18238565325737,-0.08911953866481781,-0.09789057821035385,-0.16155122220516205,-0.14519371092319489,0.12860006093978882,-0.02702360227704048,-0.04233407601714134,0.08444918692111969,0.0031455536372959614,-0.020458586513996124,-0.09738864004611969,0.055662233382463455,0.0198646429926157,-0.021493306383490562,0.01696080155670643,-0.16106636822223663,-0.02308279275894165,-0.04725096374750137,-0.09835442155599594,0.03981959819793701,0.1879395693540573,-0.12490211427211761,0.021258464083075523,0.14066286385059357,-0.19840581715106964,0.016765782609581947,-0.15464156866073608,-0.3471400737762451,-0.04243486002087593,-0.1743222028017044,0.2691341042518616,-0.02935897558927536,0.0579969696700573,-0.21311834454536438,-0.09660914540290833,-0.18304035067558289,0.16204972565174103,-0.1109912320971489,0.17468364536762238,-0.03876851499080658,0.004982944577932358,-0.0832151398062706,-0.055701032280921936,0.07814294099807739,0.2797750234603882,-0.011307750828564167,0.0151445297524333,-0.25070956349372864,0.05010100454092026,0.07344569265842438,0.0645415186882019,0.020347336307168007,-0.10914455354213715,0.10080823302268982,-0.1443328559398651,-0.06689012795686722,-0.010435358621180058,-0.15319466590881348,0.2065618634223938,0.07955040037631989,0.17729535698890686,-0.05415286868810654,-0.08166558295488358,-0.050237271934747696,0.05112438276410103,0.23529061675071716,0.33187636733055115,0.20373114943504333,-0.09464439749717712,-0.052024390548467636,-0.2675548493862152,-0.10628949850797653,-0.06336303800344467,-0.018707679584622383,0.029604753479361534,0.07134333997964859,-0.059920281171798706,0.013295267708599567,-0.001101424335502088,-0.2207474708557129,0.13834232091903687,0.11297395080327988,0.07122868299484253,0.042107533663511276,0.09863108396530151,0.15030644834041595,0.018575314432382584,0.07596173882484436,-0.04011818766593933,-0.1710033118724823,0.2577357590198517,0.1015358567237854,0.05286522954702377,-0.1268964260816574,0.08970783650875092,-0.030159523710608482,-0.08356054872274399,-0.1105029284954071,-0.07061415165662766,-0.17143826186656952,0.2635631263256073,0.20028935372829437,-0.17686615884304047,0.05294796824455261,-0.002328389324247837,-0.0649096667766571,-0.14499697089195251,-0.14592032134532928,0.0934099331498146,-0.0914425253868103,-0.05592108517885208,-0.14475922286510468,0.036330848932266235,0.29225465655326843,-0.036981429904699326,-0.033793143928050995,0.158197820186615,-0.05722676217556,-0.2064552903175354,-0.194682314991951,0.017643190920352936,0.03809192031621933,0.1454162746667862,0.025677945464849472,0.1312049776315689,-0.11741183698177338,-0.03455238789319992,-0.09140942245721817,0.21318279206752777,0.014390747994184494,0.008863192982971668,-0.05213204026222229,-0.042732398957014084,-0.031192662194371223,-0.09722865372896194,-0.14183032512664795,-0.08264736831188202,-0.15091301500797272,0.200580433011055,0.010939967818558216,0.18006673455238342,0.06570390611886978,0.12041566520929337,-0.021644648164510727,0.01765192486345768,0.054424162954092026,0.09254638105630875,-0.00303081632591784,-0.017355192452669144,0.0983031764626503,-0.08748459815979004,-0.1377444863319397,0.03473377600312233,-0.2715131640434265,0.12150424718856812,-0.122764453291893,0.11131580919027328,0.09345944225788116,0.11029454320669174,-0.12044235318899155,-0.05561389774084091,0.11684732884168625,0.20928503572940826,0.01794697530567646,0.12628768384456635,-0.09313581883907318,0.009603708982467651,0.06108122691512108,-0.25618991255760193,-0.07908828556537628,-0.0013392842374742031,-0.04092055931687355,-0.09646054357290268,-0.11620096117258072,0.18246619403362274,0.07115007191896439,0.3395632803440094,-0.46800434589385986,0.05327144265174866,-0.19269207119941711,0.020334577187895775,-0.22706027328968048,0.028083112090826035,-0.1752275973558426,-0.10124604403972626,0.017977025359869003,0.3073023557662964,-0.005751696415245533,0.1919468641281128,-0.21634787321090698,-0.06920463591814041,-0.08015257865190506,0.22968798875808716,-0.08685427159070969,-0.05232776328921318,-0.1464414745569229,0.023674452677369118,0.25866568088531494,-0.2172112762928009,-0.05012548714876175,0.02066839300096035,-0.08165224641561508,0.10396422445774078,0.06526980549097061,0.30507025122642517,0.1387418806552887,0.03520628437399864,-0.019283689558506012,0.11007168143987656,-0.04876039922237396,0.16643336415290833,0.12942518293857574,0.12372933328151703,-0.05532943829894066,0.044692229479551315,0.06792937964200974,0.10181014984846115,0.06131640821695328,0.1008141040802002,0.08323415368795395,0.006885406095534563,-0.2927353084087372,0.14105504751205444,0.19332227110862732,-0.4445187747478485,0.04849015921354294,-0.5255390405654907,-0.2363724410533905,-0.340728223323822,0.6889695525169373,-0.7620590925216675,-0.49710699915885925,-0.6389012336730957,0.23811796307563782,-0.6229931712150574,0.29424741864204407,-0.5676080584526062,-0.07120724022388458,-0.06456410884857178,0.12622849643230438,0.1939629763364792,0.16350975632667542,0.09311337023973465,-0.24233320355415344,-0.10823160409927368,-0.026992544531822205,-0.053932804614305496,0.03420739993453026,-0.055663157254457474,0.1931390017271042,0.026105312630534172,-0.024606654420495033,-0.03205367922782898,-0.0030881622806191444,-0.02519705705344677,-0.07301294058561325,-0.14878226816654205,-0.0999811664223671,0.21542833745479584,-0.03921618312597275,-0.03281565010547638,0.11727113276720047,-0.08413881063461304,0.15309029817581177,0.25038936734199524,0.10329227149486542,-0.015396962873637676,0.09457019716501236,0.19493626058101654,-0.10991451144218445,-0.28855589032173157,0.1509425789117813,0.2015211284160614,0.09634420275688171,0.029804835096001625,-0.11765356361865997,0.0006181460339576006,-0.0626106783747673,0.021739982068538666,-0.13240660727024078,-0.12424164265394211,0.15268555283546448,0.0972866415977478,0.10948409140110016,0.060205817222595215,0.07670591026544571,-0.02441982366144657,-0.23678472638130188,-0.14035356044769287,-0.2274852991104126,0.14560118317604065,-0.08163431286811829,-0.09888666868209839,-0.037011247128248215,0.12035611271858215,0.12240728735923767,0.1152043417096138,0.14285165071487427,-0.12922000885009766,0.1263895481824875,0.03002483770251274,0.4201527535915375,0.039875276386737823,-0.23123864829540253,-0.07651172578334808,0.19298306107521057,0.1046372726559639,0.014379237778484821,0.07024320960044861,0.3745056986808777,-0.1389838308095932,-0.32463338971138,-0.08876122534275055,0.10711357742547989,-0.05095197632908821,0.07863364368677139,-0.18526621162891388,-0.08607953041791916,-0.13449989259243011,-0.26686999201774597,-0.04143889993429184,0.09663720428943634,-0.3207832872867584,-0.05739534646272659,-0.08086889237165451,0.16390684247016907,0.04298461228609085,-0.07096240669488907,-0.18053841590881348,-0.11366434395313263,-0.058816809207201004,0.1697026938199997,-0.04023335501551628,-0.013021944090723991,-0.2787518799304962,0.4701998233795166,0.06074216216802597,-0.0659831240773201,0.1709885150194168,-0.1729048639535904,-0.11405748128890991,-0.1941262036561966,0.050057943910360336,-0.006468111649155617,0.27552783489227295,0.03226705640554428,-0.056294094771146774,-0.302489310503006,0.29283416271209717,0.0252644345164299,0.08826160430908203,-0.02750004455447197,-0.032010506838560104,0.18351569771766663,-0.3939865827560425,0.08676358312368393,0.06168098747730255,-0.042560458183288574,0.454692542552948,-0.06478435546159744,0.18437084555625916,-0.47324854135513306,0.26431453227996826,0.13324016332626343,0.11577071249485016,-0.08330458402633667,0.04870336875319481,-0.06537292897701263,-0.01778939738869667,-0.1928274929523468,-0.2946382164955139,0.02801971137523651,-0.003232314484193921,-0.10433762520551682,-0.00927216187119484,0.2951414883136749,0.11923427134752274,0.002719252137467265,0.1539747416973114,-0.16787998378276825,0.27219295501708984,-0.08004020154476166,0.18384172022342682,-0.0011992744402959943,0.10796209424734116,0.060851410031318665,-0.06443535536527634,0.07398216426372528,0.037679608911275864,-0.07229281961917877,-0.037859342992305756,0.10323833674192429,0.11413341760635376,0.11073379963636398,0.0026921199169009924,0.0941997617483139,-0.1979813426733017,-0.02817217819392681,-0.14119543135166168,0.07578320056200027,0.17436465620994568,0.05638720095157623,-0.06503871828317642,0.05957749858498573,-0.04483456164598465,0.1656697392463684,0.238545224070549,-0.12244024872779846,0.16577288508415222,0.06437264382839203,0.09535630792379379,-0.016624635085463524,0.14679355919361115,0.09706055372953415,0.25301167368888855,-0.017980704084038734,-0.004054252058267593,-0.1939883530139923,0.04870793968439102,0.12101997435092926,0.03223656862974167,-0.16291473805904388,0.1439649909734726,0.20589376986026764,-0.10264123231172562,-0.07066844403743744,-0.14288999140262604,0.006768350955098867,-0.14679647982120514,-0.013188072480261326,-0.07261364161968231,-0.36181196570396423,0.1771698147058487,-0.002878696657717228,0.14391376078128815,-0.1960056871175766,0.08040519058704376,-0.08975908160209656,-0.2170446217060089,-0.2533375918865204,-0.25856125354766846,0.22574593126773834,-0.2410113513469696,-0.023980779573321342,-0.06351057440042496,0.05672804266214371,-0.058469004929065704,-0.07068894058465958,0.20292596518993378,-0.2226422131061554,-0.10154685378074646,-0.006675549317151308,-0.019564198330044746,0.1471056342124939,0.23528413474559784,0.11958015710115433,0.022793306037783623,0.20056863129138947,0.17163263261318207,0.08067991584539413,-0.0015341525431722403,-0.016993943601846695,0.19785955548286438,0.0017733939457684755,-0.11345288157463074,-0.0745060071349144,-0.13119575381278992,0.08096626400947571,-0.0031404062174260616,-0.09698104858398438,0.07231317460536957,0.03246113657951355,0.10814350843429565,-0.04036615788936615,0.0788760706782341,0.19284403324127197,0.13819438219070435,0.15542620420455933,-0.25656425952911377,0.19823527336120605,0.2449670433998108,-0.27495723962783813,-0.37624824047088623,-0.09454768151044846,0.13228270411491394,0.24961978197097778,-0.19485022127628326,0.14073629677295685,0.211788147687912,0.0054888371378183365,0.37941262125968933,-0.23970681428909302,-0.15666107833385468,-0.023270349949598312,-0.01975238509476185,-0.042767059057950974,-0.024408530443906784,-0.08174165338277817,0.0063107856549322605,0.08965599536895752,0.0471520721912384,0.08598887175321579,0.11344362050294876,-0.02632227912545204,-0.059360433369874954,0.06902317702770233,-0.2924073040485382,-0.08458683639764786,-0.06260138750076294,0.1130591332912445,0.046508267521858215,-0.09743629395961761,0.032938964664936066,-0.2869163155555725,0.05501938611268997,0.023729892447590828,-0.19287270307540894,-0.019791601225733757,0.14947457611560822,-0.10733278095722198,-0.23260869085788727,0.2095288634300232,0.06234440580010414,0.0051320986822247505,0.13164377212524414,0.13560277223587036,0.32409167289733887,-0.07917951792478561,-0.24214813113212585,-0.10690313577651978,0.10883969068527222,0.21936477720737457,-0.06593506038188934,-0.14660850167274475,0.024527661502361298,-0.04720309376716614,0.12209086120128632,0.29407891631126404,-0.05764126405119896,-0.08449734002351761,-0.16390782594680786,-0.05527064949274063,-0.05805428326129913,0.04083868861198425,-0.11015528440475464,-0.008607195690274239,-0.12475201487541199,-0.050638698041439056,-0.12702955305576324,-0.13136520981788635,-0.07349123805761337,0.10232997685670853,-0.012857363559305668,-0.057958975434303284,0.224901020526886,0.2635214328765869,0.10034172981977463,-0.03623277693986893,-0.10620353370904922,0.1729196161031723,-0.0035810284316539764,0.06771591305732727,0.11710246652364731,0.22760708630084991,0.11030469089746475,-0.0006466542836278677,0.03370777890086174,-0.06942722201347351,-0.03927324339747429,0.19995532929897308,-0.046870000660419464,0.04181884229183197,-0.009375280700623989,-0.037769388407468796,-0.00945072341710329,-0.15279938280582428,-0.14406615495681763,0.057569801807403564,0.048919737339019775,0.10694205015897751,0.159786656498909,0.01079201977699995,-0.019751740619540215,-0.23273754119873047,0.06338535994291306,0.11329726129770279,0.28976109623908997,0.26346635818481445,0.08571301400661469,-0.06500637531280518,-0.1838420033454895,-0.06292522698640823,-0.05331460013985634,-0.23692823946475983,0.0012774947099387646,-0.020952710881829262,0.10708155483007431,0.025907324627041817,-0.1958794742822647,0.040251828730106354,0.11903921514749527,-0.008106151595711708,0.11973942071199417,-0.16608281433582306,-0.18075969815254211,0.07469073683023453,-0.024408159777522087,-0.2589314579963684,0.2763389050960541,-0.03613797202706337,-0.34811025857925415,0.21327994763851166,-0.03511177375912666,0.31486329436302185,0.22241151332855225,0.03895306959748268,0.006531883031129837,-0.11429837346076965,-0.22915621101856232,-0.14954853057861328,0.10905233770608902,-0.19544100761413574,-0.06316951662302017,0.012956763617694378,0.010305325500667095,0.007478069514036179,-0.04120878875255585,-0.15941159427165985,0.22631171345710754,-0.027165591716766357,-0.04306340962648392,0.10452646017074585,-0.013065330684185028,0.1560385674238205,-0.25769081711769104,-0.053473539650440216,-0.09489896893501282,0.08400942385196686,0.09543764591217041,0.06682556122541428,0.02114950492978096,-0.23890161514282227,0.04428433999419212,0.35248544812202454,0.03064602240920067,-0.12532833218574524,0.14490705728530884,0.0521799772977829,-0.056289032101631165,0.07912900298833847,-0.09083367884159088,0.045101579278707504,0.3029744625091553,-0.13500849902629852,-0.12277927249670029,0.1953604370355606,-0.0989568755030632,-0.020459868013858795,-0.3556253910064697,0.013740611262619495,0.08520042896270752,-0.11415756493806839,0.09163807332515717,-0.01256939209997654,-0.031649693846702576,-0.06693179160356522,-0.032270707190036774,-0.05873741954565048,-0.015142415650188923,0.04713278263807297,-0.12509500980377197,0.2915690541267395,-0.17333586513996124,0.08323372900485992,0.0581904798746109,0.07058659195899963,-0.027302591130137444,0.011182932183146477,-0.026204075664281845,-0.014483010396361351,-0.1276838332414627,-0.07577835768461227,-0.16589957475662231,-0.019023235887289047,-0.028990130871534348,-0.06803938001394272,0.12558946013450623,-0.056177590042352676,0.05813389644026756,-0.27428802847862244,-0.10195297002792358,0.05952925980091095,0.11378449946641922,-0.08414211124181747,-0.005437733139842749,-0.01319851353764534,-0.10235974937677383,-0.06447093188762665,-0.08649329841136932,0.1490752398967743,0.04345753788948059,0.14529895782470703,-0.0819096639752388,-0.11941572278738022,0.0815361812710762,0.1480928659439087,0.1553250551223755,0.12186674773693085,0.10220566391944885,-0.11823847144842148,0.252741277217865,0.16602519154548645,-0.1821141242980957,-0.09475880861282349,-0.03179572895169258,-0.05862531065940857,-0.18502144515514374,0.12730146944522858,0.16062019765377045,-0.11345508694648743,-0.12693551182746887,0.005016316194087267,-0.06797152757644653,0.09090583771467209,0.10218645632266998,-0.02840401977300644,-0.18611471354961395,-0.040909551084041595,0.052931029349565506,0.14033851027488708,0.042518820613622665,-0.025540348142385483,-0.04999528080224991,0.030480120331048965,0.01817045360803604,0.036940623074769974,-0.007592201232910156,-0.019788268953561783,-0.009425428695976734,-0.08499976247549057,-0.0827966034412384,-0.141053706407547,0.11901644617319107,0.12350685894489288,-0.09052795171737671,0.2103559672832489,0.05082337558269501,-0.042268797755241394,-0.194880411028862,0.08829434216022491,0.0066779619082808495,-0.17889714241027832,0.11113713681697845,-0.14632293581962585,-0.06660983711481094,-0.1418803334236145,-0.23286981880664825,0.013496629893779755,0.04181136563420296,-0.2368592470884323,0.15030178427696228,-0.03209313005208969,0.0005424036062322557,0.10340133309364319,-0.10258619487285614,-0.033021558076143265,0.02512148767709732,0.06512440741062164,-0.011623148806393147,0.09523680061101913,-0.11911460012197495,-0.18304510414600372,0.031717125326395035,0.05993356183171272,-0.03922998160123825,0.034824732691049576,0.02062453329563141,0.16710729897022247,-0.13187341392040253,-0.03408338129520416,-0.08289880305528641,0.06571020185947418,0.06352528184652328,0.01953286863863468,-0.10475848615169525,0.1598861962556839,-0.012434902600944042,0.10064450651407242,-0.10119429230690002,-0.08119720220565796,0.1368218958377838,-0.058582939207553864,-0.1581508219242096,-0.05334702134132385,0.08626797050237656,0.1613086462020874,0.020521696656942368,-0.0656186193227768,-0.10968567430973053,-0.1499241441488266,0.22373422980308533,0.14231567084789276,0.17726297676563263,-0.0008665986824780703,0.05895881727337837,-0.07088373601436615,-0.19071988761425018,0.2769947350025177,-0.10857138782739639,-0.021971024572849274,-0.01460547186434269,-0.027127843350172043,-0.12389031797647476,0.11001988500356674,0.027689924463629723,0.11204716563224792,-0.024371404200792313,-0.04556344822049141,0.1254754513502121,0.21284633874893188,-0.027091318741440773,0.09148210287094116,0.02719222567975521,0.14178641140460968,0.07575497031211853,-0.011534580960869789,-0.25881263613700867,-0.2549380362033844,0.1679047793149948,-0.04397318512201309,-0.10011076927185059,-0.08971061557531357,-0.2895963191986084,-0.05992348864674568,-0.08750972151756287,0.08892202377319336,-0.18381384015083313,-0.03310300037264824,0.07254985719919205,0.06206092983484268,0.06807252019643784,-0.018984884023666382,0.13186641037464142,-0.15209169685840607,-0.007120214868336916,-0.14264026284217834,0.02672206424176693,-0.40056827664375305,0.061684366315603256,-0.04732115939259529,-0.032665833830833435,-0.10575209558010101,0.04896204546093941,0.09015855938196182,-0.0550718791782856,-0.1658959984779358,-0.005752017721533775,-0.017834044992923737,0.14285215735435486,0.04564175009727478,-0.09102543443441391,0.09616730362176895,0.10248889029026031,0.03195658326148987,-0.12664733827114105,0.13882692158222198,0.038983650505542755,0.10789015144109726,0.07540446519851685,0.11742954701185226,0.16936390101909637,0.12170305103063583,-0.09296519309282303,0.1508869230747223,-0.3183615207672119,0.08172639459371567,-0.17330600321292877,0.07826922833919525,-0.05407768487930298,-0.10360974073410034,-0.48165860772132874,-0.19481031596660614,-0.05756751447916031,0.3690038025379181,-0.15022118389606476,-0.14216813445091248,0.11224395036697388,0.043178193271160126,-0.08417501300573349,-0.0543648786842823,0.005893021821975708,0.2297554463148117,0.3570464849472046,-0.14829730987548828,-0.14513598382472992,-0.0457635298371315,0.043162908405065536,-0.12197711318731308,0.062630794942379,0.03824753314256668,0.07271942496299744,-0.057374920696020126,-0.14558596909046173,0.025944270193576813,-0.02705148607492447,-0.12162045389413834,-0.0960136130452156,-0.20242728292942047,-0.03734197840094566,-0.10787833482027054,-0.10948042571544647,0.2074437141418457,0.16258347034454346,0.14654985070228577,0.05680045485496521,-0.17871323227882385,0.08123147487640381,0.13795268535614014,-0.014139978215098381,0.1728830486536026,0.06587374955415726,0.11432542651891708,0.13971608877182007,0.09380144625902176,0.051234710961580276,-0.04995927959680557,-0.09882654994726181,0.16902337968349457,-0.06933494657278061,-0.03224663808941841,0.15321652591228485,-0.022956224158406258,0.045107003301382065,0.0422791913151741,0.16723276674747467,0.1965343952178955,0.09648889303207397,0.02584969997406006,0.32860442996025085,-0.015279002487659454,0.12494862824678421,-0.12377147376537323,-0.05394909158349037,-0.0648730993270874,0.10909561812877655,0.08908462524414062,0.21631118655204773,0.035684164613485336,0.06062930077314377,-0.028848448768258095,-0.09240096062421799,0.02650729939341545,-0.3045233190059662,0.028352655470371246,-0.0729016587138176,0.06926820427179337,-0.07041940838098526,0.008340362459421158,0.06153764948248863,-0.3207436501979828,0.008482436649501324,-0.44347116351127625,0.22734582424163818,0.030431708320975304,-0.06254033744335175,0.016845207661390305,-0.1456846296787262,-0.08906044065952301,0.034623995423316956,-0.13990916311740875,0.11437824368476868,0.0753389373421669,0.03528781607747078,-0.1711505949497223,-0.0877474769949913,0.25878581404685974,-0.02592509798705578,0.046166934072971344,0.014108346775174141,-0.15532419085502625,-0.04670903459191322,-0.130533367395401,-0.129034623503685,-0.03061884082853794,0.12221179157495499,-0.13425038754940033,0.06923538446426392,-0.10236262530088425,-0.15347638726234436,-0.002488499041646719,0.02259586751461029,0.0687243863940239,-0.07580214738845825,-0.019546035677194595,-0.06194580718874931,-0.024628251791000366,0.07030344754457474,0.18211455643177032,-0.006610115058720112,0.06140536069869995,0.1125430166721344,0.15046368539333344,-0.11878933012485504,0.09933920949697495,0.09053891152143478,0.01923201233148575,-0.02241673693060875,0.04520072788000107,0.09128595143556595,-0.28644606471061707,0.06346490979194641,0.09706541150808334,-0.22955693304538727,-0.015339269302785397,0.03204253315925598,-0.025591913610696793,-0.05509807541966438,-0.055082470178604126,-0.0417538657784462,0.06896303594112396,0.0616336390376091,0.1100701242685318,0.19288556277751923,0.06295804679393768,0.19377511739730835,-0.017572078853845596,-0.04932420700788498,0.0778186246752739,0.13146533071994781,-0.05607742443680763,-0.03502020239830017,-0.03588736429810524,0.22840933501720428,-0.13172389566898346,0.012417569756507874,-0.22496679425239563,0.02001221291720867,-0.0002876957878470421,-0.09228958934545517,0.035269565880298615,0.08672472834587097,-0.053309064358472824,-0.04982912167906761,0.07374296337366104,-0.020182671025395393,0.22580458223819733,-0.15257947146892548,-0.004693263676017523,-0.2750728726387024,0.024396361783146858,-0.04937516152858734,-0.11602398753166199,-0.04069434106349945,-0.06249729171395302,-0.20495586097240448,-0.019407106563448906,0.17301230132579803,0.10880517959594727,0.011216279119253159,0.08480670303106308,-0.43307557702064514,-0.17048268020153046,0.08145013451576233,-0.007992853410542011,-0.13814324140548706,-0.11638213694095612,-0.2598997950553894,-0.08968047797679901,-0.0652560442686081,0.012021546252071857,0.0823734924197197,0.05785354599356651,-0.15875442326068878,0.1643460988998413,-0.23401615023612976,0.08182086795568466,-0.10971422493457794,-0.074148029088974,0.21728651225566864,-0.06322580575942993,-0.14928038418293,0.1499166637659073,-0.012219217605888844,-0.2423066794872284,0.09743410348892212,-0.12419912219047546,-0.04555777087807655,0.23919950425624847,0.014154664240777493,0.02091510035097599,-0.1609976440668106,0.015333490446209908,-0.15633021295070648,-0.09928426891565323,-0.12017166614532471,-0.05456076189875603,-0.029719768092036247,0.09151731431484222,-0.015487845987081528,0.07181967794895172,-0.06318851560354233,-0.012508055195212364,0.01789236068725586,-0.12526170909404755,0.18114891648292542,-0.1293923556804657,-0.09417779743671417,-0.23291198909282684,-0.07966938614845276,0.10622433573007584,-0.1625441461801529,-0.032185621559619904,-0.18404564261436462,0.03651377186179161,0.13441352546215057,0.1642025113105774,0.12089519202709198,-0.09010854363441467,0.023023655638098717,0.07282879948616028,0.2897428870201111,-0.1441342681646347,0.05907423794269562,-0.06482718139886856,0.17801018059253693,0.09926136583089828,-0.04944068193435669,-0.032935839146375656,0.030940288677811623,-0.19683261215686798,0.22229936718940735,-0.02845648117363453,0.00454606581479311,-0.08940397202968597,-0.03019675426185131,-0.014843577519059181,0.006295356433838606,-0.04810575395822525,0.17387032508850098,0.24940495193004608,0.11843392997980118,-0.22642551362514496,-0.19074764847755432,-0.07105901837348938,0.054806213825941086,0.0678076446056366,0.12066240608692169,0.20115497708320618,0.012900959700345993,-0.0387381836771965,0.07697734236717224,-0.09740190953016281,-0.08528263121843338,0.21683908998966217,0.05100392550230026,0.10057204216718674,-0.1017608568072319,0.10364429652690887,0.015904508531093597,-0.16790734231472015,-0.13986721634864807,-0.16348381340503693,0.26721814274787903,0.20367275178432465,0.10142125934362411,-0.16436518728733063,-0.15609733760356903,0.002612088108435273,0.04309048876166344,-0.15047313272953033,0.0057657998986542225,-0.00816643238067627,0.27375999093055725,0.23746174573898315,-0.1149490624666214,0.043159060180187225,0.005956567358225584,-0.05925280973315239,-0.07981930673122406,-0.03161649778485298,-0.19331417977809906,0.10728829354047775,0.1254650354385376,0.11338858306407928,0.16386839747428894,-0.06936424970626831,-0.07420718669891357,-0.04349324107170105,-0.1183624118566513,0.13876420259475708,-0.03884858638048172,-0.22737854719161987,-0.05922111123800278,0.07676368206739426,-0.11795015633106232,-0.12119670957326889,0.25722557306289673,0.03045514039695263,-0.17054706811904907,-0.12342870980501175,0.047113481909036636,-0.1415981650352478,0.20193488895893097,-0.060976941138505936,0.003865704173222184,-0.05864483118057251,-0.11271223425865173,0.1673218160867691,0.18136344850063324,0.14077958464622498,-0.05749603733420372,-0.11919107288122177,-0.0812712237238884,0.10448480397462845,-0.260574609041214,0.14421172440052032,-0.2920095920562744,-0.09068113565444946,-0.14596886932849884,-0.059291161596775055,-0.15654295682907104,-0.24731962382793427,0.10533243417739868,-0.03004772588610649,-0.12758368253707886,0.085027314722538,0.06647524982690811,0.11439813673496246,0.05042790621519089,0.04918505251407623,0.09100574254989624,0.08937197178602219,-0.1420745700597763,0.02107340656220913,0.4002358615398407,-0.026257773861289024,0.08222494274377823,-0.016398070380091667,-0.1424061506986618,-0.08737411350011826,0.5118073225021362,-0.07216068357229233,0.2370901256799698,0.22718900442123413,-0.11728137731552124,0.09812510013580322,0.019320374354720116,0.0393485464155674,-0.21027283370494843,-0.005501565057784319,-0.11244969815015793,0.20004132390022278,0.05065583065152168,-0.023501336574554443,-0.07200364768505096,-0.2494642436504364,-0.1874014437198639,-0.011691488325595856,-0.007401989307254553,-0.08721858263015747,-0.1504928320646286,-0.10395971685647964,-0.23235119879245758,-0.08652349561452866,0.1785699874162674,0.0813804492354393,-0.016194447875022888,-0.07247200608253479,-0.06283033639192581,0.10502695292234421,-0.16379134356975555,0.10583337396383286,-0.04281012341380119,0.0005793318268842995,0.009764675982296467,0.10325237363576889,-0.05820325389504433,-0.03551916778087616,0.03822645545005798,0.003497089957818389,-0.06428887695074081,0.051393091678619385,-0.02942245453596115,-0.023340145125985146,0.02518397942185402,0.0648612305521965,0.06682568043470383,0.02043997310101986,-0.00468007056042552,-0.0831504538655281,0.13279758393764496,-0.10253222286701202,0.10043633729219437,-0.21978549659252167,-0.3208189904689789,0.4818885326385498,0.2617497146129608,-0.3374616801738739,0.039413996040821075,-0.12545421719551086,-0.10193485766649246,0.16185162961483002,-0.559600830078125,0.6200693249702454,0.40821123123168945,0.07445558905601501,-0.2951561510562897,0.13697829842567444,-0.3207283914089203,-0.08560342341661453,-0.09737300127744675,-0.07392913103103638,-0.2509734034538269,0.29738500714302063,0.09543664008378983,0.2778876721858978,0.08158282190561295,0.10185524076223373,0.1743926852941513,0.05625813454389572,0.06615336239337921,-0.23284031450748444,-0.028462715446949005,-0.06834490597248077,-0.06652553379535675,0.18870194256305695,-0.17247645556926727,0.2172076404094696,0.16564445197582245,-0.043050602078437805,0.14353996515274048,-0.24121995270252228,-0.09108581393957138,-0.21273428201675415,-0.10787656903266907,-0.0024663947988301516,-0.06776691228151321,0.13135309517383575,0.37969252467155457,0.12820085883140564,-0.3400437831878662,0.08933673799037933,-0.2471703439950943,0.10090388357639313,0.04429684579372406,0.012676305137574673,-0.06516119837760925,-0.06793635338544846,-0.3125254809856415,-0.19664916396141052,0.006197936367243528,-0.02963346429169178,0.10930677503347397,0.2481909543275833,-0.2321656197309494,-0.007161682937294245,0.09263063222169876,0.31718137860298157,0.081753671169281,0.13410262763500214,-0.004714190028607845,-0.11546788364648819,0.08146233856678009,-0.23601491749286652,0.014777122065424919,0.43977317214012146,0.12645837664604187,0.044929537922143936,0.29704704880714417,0.4257451891899109,0.04596249386668205,0.2690168023109436,-0.227020725607872,-0.07259616255760193,-0.0022573480382561684,-0.0024133336264640093,-0.19858384132385254,0.24335065484046936,-0.07840199023485184,-0.03211110830307007,-0.26052990555763245,0.2175704836845398,-0.0477975569665432,-0.2431638240814209,0.03948143869638443,-0.2897700369358063,-0.25452932715415955,0.14653873443603516,-0.23250162601470947,-0.3134830892086029,0.0010223982390016317,-0.0356612429022789,0.1630866378545761,-0.12213978916406631,-0.14664492011070251,0.07712271064519882,0.0027290980797261,-0.03324407711625099,-0.33705875277519226,-0.14905551075935364,0.16838456690311432,0.033223409205675125,0.20967431366443634,0.025916777551174164,0.1162249743938446,0.16976748406887054,0.12339702993631363,0.10193043202161789,-0.1354123204946518,0.09114380180835724,-0.10101460665464401,-0.13638359308242798,-0.30597636103630066,-0.2778348922729492,0.14352425932884216,0.18402099609375,-0.013607682660222054,0.24788795411586761,0.012464982457458973,0.09733469039201736,-0.17961306869983673,0.1944400817155838,0.1292596012353897,-0.3160042464733124,-0.014574257656931877,0.22761060297489166,-0.06847386807203293,-0.02587500959634781,0.06062750890851021,-0.044465307146310806,0.059722285717725754,0.048960212618112564,0.22029930353164673,-0.10153678059577942,0.132588192820549,0.07783003151416779,-0.22182515263557434,-0.1317680925130844,0.21197766065597534,0.13343188166618347,0.23800064623355865,0.08395573496818542,-0.07979540526866913,-0.058777377009391785,0.003496348625048995,-0.18738201260566711,0.13746173679828644,0.05660895258188248,0.27403581142425537,-0.20444796979427338,0.15556803345680237,-0.08301091194152832,0.1805528700351715,0.18790802359580994,-0.10711086541414261,-0.36732447147369385,0.012439128942787647,0.16302821040153503,0.15884636342525482,0.1924007087945938,-0.055472686886787415,0.0052887690253555775,-0.031227273866534233,0.05256766080856323,-0.12989194691181183,-0.12822721898555756,-0.24947451055049896,0.2623566687107086,-0.03541654720902443,0.3339221179485321,-0.13608437776565552,-0.1713028997182846,-0.15522104501724243,-0.06504243612289429,-0.11176199465990067,-0.001816294970922172,-0.0881386548280716,0.1906731277704239,0.037085097283124924,-0.15929560363292694,-0.0013809389201924205,0.11514948308467865,-0.1798097938299179,0.08500344306230545,0.12486778199672699,0.10467987507581711,-0.0684281438589096,0.04833875223994255,0.062016308307647705,-0.1536591798067093,0.20065857470035553,0.16719503700733185,0.04467298090457916,-0.1057363823056221,-0.0006526104407384992,-0.05933915078639984,0.17470782995224,-0.29284757375717163,-0.3576204478740692,0.08574652671813965,0.19735585153102875,-0.16908957064151764,-0.2525554597377777,-0.22322748601436615,0.0117692481726408,-0.10837237536907196,0.059909604489803314,-0.24480879306793213,-0.5033654570579529,0.16863496601581573,-0.11723129451274872,-0.003980746027082205,-0.10178255289793015,0.14273105561733246,0.13554880023002625,0.06268671900033951,-0.06906343251466751,-0.17613506317138672,0.10851963609457016,-0.18963293731212616,0.05043928325176239,0.017109699547290802,-0.12006013095378876,0.06273835152387619,-0.21276021003723145,0.006841934751719236,0.02809954062104225,0.049445733428001404,-0.2144426554441452,0.06335730105638504,0.2289128303527832,-0.17780326306819916,0.018384570255875587,0.022642619907855988,0.19578343629837036,-0.0837455466389656,-0.012897471897304058,0.10156206041574478,-0.011944204568862915,0.1785133332014084,-0.0958736315369606,0.23849037289619446,0.09722886979579926,0.10520339012145996,0.05299041420221329,-0.033441875129938126,0.12909840047359467,0.027127770707011223,-0.3071073591709137,-0.2427312433719635,-0.2038826048374176,-0.02520921640098095,-0.3013535737991333,-0.16600970923900604,0.0027439428959041834,0.11768838763237,-0.15939392149448395,-0.19947360455989838,0.1679140031337738,0.1505134552717209,0.4084693193435669,-0.23124831914901733,-0.09481684863567352,-0.12365580350160599,0.08939239382743835,0.00517928646877408,-0.003284370293840766,0.022846393287181854,0.07497235387563705,-0.021861540153622627,0.031360942870378494,0.01711910590529442,-0.006247661076486111,-0.13404704630374908,-0.07104518264532089,-0.041883647441864014,0.1683035045862198,0.010502082295715809,0.012041624635457993,-0.028005272150039673,0.0008185190381482244,-0.00419671181589365,-0.06542836874723434,0.03738325089216232,0.09963085502386093,0.029991520568728447,0.06038225442171097,0.07897523045539856,-0.10186972469091415,0.1797618567943573,-0.03673942759633064,0.06938859820365906,0.034466277807950974,0.07475139945745468,-0.25477251410484314,-0.22193965315818787,0.12021661549806595,0.01563832350075245,0.05671526491641998,0.10513274371623993,-0.08146726340055466,-0.11592186987400055,0.1989709883928299,0.011882402002811432,0.2974061071872711,0.059313319623470306,-0.1053752452135086,0.21307766437530518,-0.008816804736852646,0.11930957436561584,-0.12398005276918411,-0.06243128329515457,-0.1477593183517456,0.39300402998924255,0.12813511490821838,-0.19024905562400818,-0.21649394929409027,-0.144197478890419,-0.07385388016700745,-0.15423457324504852,0.020669693127274513,-0.06816647946834564,-0.04505227506160736,-0.25337937474250793,-0.2318158745765686,-0.2939854860305786,0.27884766459465027,-0.21751026809215546,0.23938727378845215,0.055853258818387985,0.1627555787563324,-0.015585851855576038,-0.023510146886110306,0.08251726627349854,-0.05565422773361206,-0.11638883501291275,-0.13562922179698944,0.11251792311668396,-0.19155050814151764,0.16047759354114532,0.05622093379497528,-0.03883012384176254,0.15859998762607574,0.02427046187222004,-0.0529785118997097,-0.3002674877643585,-0.21001814305782318,0.20127317309379578,0.08930622041225433,-0.002543751383200288,0.15914084017276764,-0.01485612615942955,-0.15478886663913727,-0.03960997238755226,0.07813246548175812,0.027922136709094048,0.08277550339698792,0.15881949663162231,-0.00039971398655325174,-0.22157734632492065,0.10458587110042572,0.15329501032829285,0.09026054292917252,0.0699918121099472,-0.2440139353275299,0.0019444364588707685,0.018777942284941673,0.014915570616722107,-0.2888062298297882,0.012821493670344353,-0.031231364235281944,0.012611246667802334,0.14488595724105835,0.15536414086818695,-0.22610153257846832,-0.002533629070967436,-0.02747705765068531,-0.17997032403945923,-0.12134183198213577,0.01269461214542389,0.11724898219108582,0.07868807017803192,-0.15889202058315277,-0.09945330768823624,-0.009986571036279202,0.21027801930904388,-0.30616098642349243,0.19212131202220917,-0.017773253843188286,-0.05183196812868118,0.11261393129825592,-0.04531180486083031,-0.08125467598438263,-0.1811690330505371,-0.14272484183311462,-0.1061672642827034,-0.1309596449136734,-0.05889682099223137,0.11940179765224457,-0.0154868233948946,-0.012211735360324383,0.013520950451493263,0.015018644742667675,0.0900752916932106,0.021900029852986336,-0.054830532521009445,0.003720729611814022,-0.02743731439113617,0.2561416029930115,0.12231158465147018,-0.12510478496551514,-0.012261752039194107,-0.0173775777220726,-0.09457963705062866,-0.032500311732292175,-0.09430184215307236,-0.0005206355126574636,0.03670454025268555,0.015850011259317398,0.19405809044837952,-0.08894594013690948,0.008339282125234604,0.21690919995307922,-0.19138146936893463,-0.20426975190639496,-0.056777674704790115,0.24217936396598816,0.10837382823228836,0.05149313807487488,-0.12131193280220032,0.24263925850391388,0.20127494633197784,0.036102522164583206,-0.21002453565597534,-0.10993663966655731,0.022044694051146507,0.05862278491258621,0.1772799789905548,0.17420318722724915,0.1501092165708542,0.04240270331501961,-0.054832614958286285,0.21660660207271576,0.16209322214126587,-0.0911949872970581,-0.10087426006793976,0.0279388464987278,0.0008754039881750941,0.11211797595024109,0.11141504347324371,-0.1639966368675232,-0.274118572473526,-0.25001177191734314,-0.03248120844364166,0.1856355518102646,0.08086557686328888,0.25201964378356934,-0.14259307086467743,-0.05753694847226143,0.18411067128181458,0.1813972294330597,0.035239506512880325,0.13827070593833923,-0.11142579466104507,0.19967594742774963,0.16176274418830872,-0.17371796071529388,-0.042291946709156036,0.07142606377601624,-0.1384003460407257,0.14311710000038147,0.13270863890647888,0.22399677336215973,0.21227851510047913,-0.004523016978055239,-0.04659465327858925,0.05035597085952759,0.08831305801868439,0.02048949897289276,-0.1209791824221611,0.02637440524995327,-0.09970404207706451,0.15941865742206573,-0.24589815735816956,-0.1601165235042572,0.19880740344524384,-0.14170444011688232,0.01161463838070631,-0.012652700766921043,0.183641254901886,0.2308615893125534,-0.15445969998836517,-0.10484769940376282,0.11213941872119904,0.25394192337989807,0.09901326149702072,-0.17312060296535492,-0.13961032032966614,0.09716321527957916,-0.152379110455513,-0.032103490084409714,-0.04713878035545349,0.06763340532779694,0.07276427745819092,-0.05082561820745468,-0.0679137110710144,-0.00486416881904006,-0.13554587960243225,-0.11772970110177994,-0.07792121171951294,0.02296791598200798,-0.001115302904509008,-0.23308026790618896,-0.07522442936897278,-0.09604113548994064,-0.045682601630687714,-0.06277597695589066,0.11011814326047897,-0.07198798656463623,-0.1128663495182991,0.31082940101623535,-0.16362294554710388,-0.1598442792892456,-0.36254382133483887,0.07650002092123032,0.1488400101661682,0.027710268273949623,0.20431332290172577,0.24425485730171204,0.2701599597930908,0.08169923722743988,0.2795744836330414,-0.25849249958992004,0.173299640417099,0.08385951817035675,-0.03757401183247566,-0.016522802412509918,-0.21105840802192688,-0.05109047144651413,-0.007306978572160006,0.21709585189819336,0.3168357014656067,-0.08315834403038025,-0.1517733931541443,-0.043062612414360046,-0.033549677580595016,0.05428014323115349,-0.016633447259664536,0.0201911311596632,0.004584282170981169,-0.0856335312128067,0.040770940482616425,-0.006942038424313068,0.030911536887288094,0.12108305096626282,-0.11746160686016083,0.03632918745279312,0.05973229184746742,-0.050934381783008575,-0.1938018500804901,-0.061212021857500076,0.038598619401454926,0.03631952777504921,-0.10859981924295425,0.18669015169143677,0.06487027555704117,0.2546776235103607,0.03755486011505127,0.10520374029874802,0.10498392581939697,-0.023076355457305908,-0.1323906034231186,-0.0032979517709463835,-0.12197557836771011,-0.21437112987041473,0.08954685181379318,0.14397139847278595,0.0907551720738411,0.09033577889204025,-0.2529561519622803,-0.1266503781080246,-0.0008826754637993872,-0.1185806393623352,-0.07645455002784729,0.0024011230561882257,0.1827246993780136,0.044619958847761154,-0.0017598032718524337,-0.12334472686052322,-0.0034473128616809845,0.14170828461647034,-0.16438902914524078,0.019808145239949226,-0.036074232310056686,0.19155757129192352,0.027806084603071213,-0.007319341879338026,-0.0434904582798481,0.051453717052936554,0.2835233807563782,-0.06850722432136536,0.03047667257487774,0.013485203497111797,-0.35926684737205505,-0.023995067924261093,0.20732790231704712,0.018864775076508522,0.028482448309659958,-0.06244836375117302,0.15833036601543427,-0.1486671417951584,0.028769975528120995,0.1728963702917099,-0.035071615129709244,-0.10011225938796997,0.09897088259458542,-0.1090378686785698,0.08649565279483795,-0.0006527111399918795,0.18147321045398712,0.013135429471731186,0.02510363981127739,0.14668431878089905,0.04234461858868599,-0.009996653534471989,0.11520372331142426,-0.26351431012153625,0.34253063797950745,0.030452163890004158,0.23161914944648743,0.34022027254104614,0.10689155012369156,-0.02449420467019081,-0.08163359761238098,0.033209625631570816,0.024538610130548477,-0.3360288739204407,-0.049684662371873856,-0.08232065290212631,0.030963290482759476,-0.3095323145389557,0.052574522793293,-0.12017510831356049,0.08390577882528305,-0.1784374862909317,-0.10333332419395447,-0.012330061756074429,-0.09835073351860046,0.07960139960050583,-0.12658339738845825,0.1070324182510376,0.0741250142455101,0.05881880223751068,0.13611964881420135,0.09048089385032654,0.1092233806848526,0.17058421671390533,-0.17323292791843414,-0.029547778889536858,-0.04033524915575981,-0.12947629392147064,-0.06548131257295609,-0.023746026679873466,-0.07603573799133301,0.04743266478180885,-0.10562779754400253,0.08825969696044922,0.05765387788414955,0.012439322657883167,-0.0046361698769032955,0.12708598375320435,-0.0667903795838356,-0.12154138833284378,-0.0007523901876993477,-0.1571221947669983,-0.1933736354112625,0.03794065862894058,-0.007413445506244898,-0.12512294948101044,-0.10720857977867126,-0.05630233883857727,-0.06423255056142807,-0.17127284407615662,-0.04188011586666107,-0.0644533634185791,0.001191086252219975,-0.24622604250907898,-0.18467696011066437,-0.04915613308548927,-0.07220949977636337,-0.008459024131298065,-0.07195761799812317,0.18177300691604614,0.07036852836608887,-0.08747967332601547,0.1956028938293457,0.007689384743571281,-0.06104335933923721,0.07754093408584595,-0.058190640062093735,-0.13806883990764618,0.13691672682762146,-0.09384088218212128,-0.16416358947753906,-0.18008622527122498,0.18238748610019684,0.044383905827999115,0.04105020686984062,0.09155841916799545,0.053877249360084534,0.1994812935590744,-0.1578419953584671,0.25591418147087097,-0.18124499917030334,0.12006179243326187,0.15355104207992554,0.3535197377204895,-0.17843759059906006,-0.15968340635299683,0.07995983958244324,-0.01135366689413786,-0.03073774464428425,0.044335681945085526,-0.2653769850730896,0.03255791589617729,-0.09966544806957245,-0.02494533732533455,0.12301158159971237,-0.1555894911289215,0.07609222084283829,-0.258574515581131,0.07196204364299774,-0.14608906209468842,0.04958152025938034,0.017507130280137062,0.019083041697740555,0.11148538440465927,0.09538693726062775,0.05094273015856743,-0.09102867543697357,-0.1716245412826538,-0.0032950127497315407,0.07971978932619095,-0.08726955950260162,0.17442291975021362,-0.013206456787884235,-0.22517037391662598,-0.14503119885921478,-0.016222773119807243,0.02490953914821148,-0.09389705210924149,-0.15061606466770172,0.022515220567584038,0.19395311176776886,-0.10113371908664703,0.15499752759933472,0.11826912313699722,-0.1838076114654541,-0.05962520092725754,0.001784065505489707,0.06735432147979736,-0.08535625785589218,-0.19981889426708221,-0.2518463432788849,0.017053551971912384,-0.10479507595300674,0.7293864488601685,0.12283570319414139,0.03573475778102875,0.17450784146785736,0.11813437938690186,-0.08436001092195511,-0.13978196680545807,-0.2676304578781128,-0.08484795689582825,0.10458294302225113,0.009192872792482376,-0.014646945521235466,0.5228601694107056,0.13772299885749817,0.03932210057973862,0.2037983536720276,-0.1678304672241211,-0.2022974193096161,-0.04453752934932709,0.14519786834716797,0.05822853371500969,0.1498420536518097,-0.18526145815849304,0.07417802512645721,-0.09175815433263779,0.16385148465633392,0.08496812731027603,0.08419813960790634,-0.2583673596382141,-0.06895257532596588,-0.393079936504364,0.10625166445970535,-0.05547881871461868,0.19281771779060364,0.23002989590168,-0.019517919048666954,0.25742197036743164,0.1034938171505928,0.12708890438079834,0.4022905230522156,-0.03848394379019737,0.25364407896995544,0.021371707320213318,0.04838074371218681,0.06570946425199509,-0.11108048260211945,0.09395501017570496,0.05772905796766281,-0.12910322844982147,-0.0984368771314621,-0.021927691996097565,0.242407888174057,-0.044411998242139816,-0.2534053325653076,0.02761245332658291,-0.32774263620376587,-0.13967928290367126,0.009868769906461239,0.01103353314101696,-0.08455920219421387,-0.17227818071842194,-0.29501599073410034,0.030950071290135384,-0.12992051243782043,0.1099860817193985,-0.09239397197961807,0.059878330677747726,-0.17427821457386017,-0.0008300479385070503,0.1628045290708542,-0.08913593739271164,0.16999739408493042,0.040762633085250854,-0.0005428880685940385,-0.12302405387163162,0.16419647634029388,0.11722477525472641,-0.05106711760163307,-0.042810045182704926,0.032294247299432755,0.17707164585590363,0.012643223628401756,0.16312257945537567,-0.07260660082101822,0.06742896884679794,-0.10308826714754105,-0.09658443927764893,-0.19162313640117645,0.19648969173431396,-0.16582554578781128,0.027746597304940224,-0.035513199865818024,0.06831080466508865,-0.0044310325756669044,0.06025395542383194,-0.022996794432401657,-0.045262765139341354,0.172137051820755,0.07577982544898987,-0.03734356537461281,-0.1755959838628769,0.25923365354537964,-0.3378826677799225,0.026206791400909424,0.19697456061840057,0.12040282040834427,0.10338598489761353,0.005079503171145916,0.030772615224123,-0.1924651712179184,-0.06987731903791428,-0.24733419716358185,0.09820595383644104,0.1312682032585144,-0.12863320112228394,-0.08489754796028137,0.05132562294602394,-0.1751357764005661,-0.10899526625871658,0.14515574276447296,0.007535075303167105,-0.10446986556053162,0.024096790701150894,-0.12017761170864105,0.005044765304774046,0.019923629239201546,0.10234197229146957,-0.0059813158586621284,-0.024238906800746918,-0.06299345940351486,0.13494889438152313,-0.06269171088933945,0.056911930441856384,-0.08750225603580475,0.02761782333254814,0.05772091820836067,0.14586442708969116,0.2776634991168976,-0.12039542943239212,-0.048221904784440994,-0.10638536512851715,0.05508638918399811,-0.03140060603618622,0.3047427535057068,0.2350786179304123,-0.08842960000038147,0.002845532028004527,-0.07104448974132538,-0.12550844252109528,0.23636537790298462,0.06582687050104141,-0.05874667689204216,0.015109891071915627,0.2297743707895279,-0.07045493274927139,-0.23262804746627808,0.07760988920927048,-0.1686924546957016,0.08216812461614609,0.24934642016887665,-0.05002884566783905,0.19311457872390747,-0.09679332375526428,0.036126188933849335,-0.04719666764140129,-0.0017426199046894908,-0.11594325304031372,-0.10204610228538513,0.06779155880212784,0.06025245413184166,0.015032029710710049,-0.048912737518548965,0.035335417836904526,0.06727852672338486,-0.09896732866764069,-0.011415984481573105,-0.1082148477435112,-0.10806547105312347,0.03208329528570175,-0.13995413482189178,0.10368147492408752,0.05132204666733742,-0.09942059218883514,0.19697712361812592,0.11371299624443054,-0.1863810271024704,0.006253328640013933,0.023110436275601387,0.018527260050177574,0.05353940650820732,-0.15922364592552185,-0.13256201148033142,-0.0605195015668869,-0.1456722468137741,0.050300292670726776,0.05940990522503853,0.37369173765182495,0.035377614200115204,0.09442848712205887,-0.02281098999083042,-0.048713598400354385,-0.04747777804732323,0.1993795782327652,0.07915361225605011,0.10548020154237747,0.11562848836183548,-0.23480485379695892,-0.022210709750652313,0.09090518951416016,-0.07699822634458542,-0.012564243748784065,-0.08847838640213013,0.08084816485643387,0.14670264720916748,-0.002790020313113928,0.07711004465818405,0.025554364547133446,-0.04905495047569275,-0.10953745245933533,-0.04111110046505928,0.15772342681884766,-0.19021330773830414,-0.16958223283290863,-0.16432654857635498,0.05599362030625343,0.021270349621772766,-0.16637825965881348,0.14967148005962372,-0.011267153546214104,-0.1028909757733345,0.006651024334132671,-0.08438576012849808,-0.003285687882453203,0.3085775375366211,0.031179120764136314,-0.22651422023773193,0.2266114503145218,0.27617746591567993,0.02604081481695175,-0.04729992151260376,-0.05049369856715202,-0.1326298713684082,-0.04474257305264473,-0.23144379258155823,-0.1173982247710228,-0.021816501393914223,0.16710063815116882,-0.17707964777946472,0.1302497833967209,0.23046284914016724,-0.03245961293578148,0.008881239220499992,0.07042519748210907,0.04011252894997597,0.15529753267765045,-0.21191468834877014,-0.27434951066970825,-0.02831648662686348,-0.12126079946756363,0.13915860652923584,-0.0343925803899765,-0.1511811763048172,-0.16303220391273499,-0.025626514106988907,0.25460922718048096,-0.14441128075122833,0.11500246822834015,-0.18904003500938416,-0.0722326934337616,-0.13813385367393494,0.06666585803031921,-0.20064881443977356,-0.02159988321363926,0.03163905441761017,-0.03331514075398445,0.08733019977807999,0.000969352142419666,0.07613129168748856,0.1819658726453781,-0.012042835354804993,0.06242913380265236,0.22647112607955933,-0.049030669033527374,0.01522102952003479,-0.08010345697402954,0.08939112722873688,-0.06682775914669037,0.10603535175323486,0.0643419548869133,-0.022205621004104614,-0.07746753096580505,0.06408751755952835,0.12920884788036346,-0.14980730414390564,-0.0939442440867424,0.03784484043717384,0.020522361621260643,-0.0331910215318203,0.0054389964789152145,0.3272586464881897,0.09414613991975784,0.23140737414360046,-0.6693727970123291,-0.3548375070095062,0.10057021677494049,0.16672948002815247,-0.006996538955718279,0.055717796087265015,0.2886524498462677,-0.7104582786560059,0.23002247512340546,-0.029880622401833534,-0.4398019015789032,-0.02270357683300972,-0.24774184823036194,-0.09855298697948456,-0.17877891659736633,0.09284532070159912,-0.2398107498884201,0.15562492609024048,0.22421570122241974,0.0805535763502121,-0.3419995605945587,0.1863086074590683,0.004737460985779762,-0.07777808606624603,-0.11151197552680969,-0.1176639199256897,-0.028844865038990974,0.18108953535556793,-0.0942765474319458,-0.3071875274181366,-0.26127326488494873,0.06647802144289017,-0.05141378194093704,-0.045646123588085175,-0.0346873439848423,0.27430596947669983,-0.11791747063398361,-0.2376500815153122,0.009779280982911587,-0.19280579686164856,0.20230349898338318,0.11958729475736618,0.07532051205635071,0.07180500775575638,0.22368355095386505,0.00940469466149807,0.1047665923833847,-0.039971284568309784,-0.19612063467502594,-0.07280269265174866,-0.04889757186174393,0.04918289929628372,-0.1788048893213272,0.0780523344874382,-0.13066165149211884,0.002677028998732567,-0.022644933313131332,0.1550053060054779,0.10281788557767868,-0.06377895921468735,0.17316848039627075,-0.010239316150546074,-0.1579718142747879,0.05347798764705658,-0.05888957902789116,0.3144964873790741,0.54453444480896,0.19315245747566223,0.07839404791593552,-0.11925108730792999,-0.13202211260795593,-0.0043289074674248695,-0.01776103489100933,0.5180504322052002,0.18181510269641876,0.057727232575416565,-0.42895373702049255,0.1279567927122116,-0.02580181695520878,-0.017386209219694138,-0.23374724388122559,0.05721665173768997,-0.0375509187579155,0.13997791707515717,-0.20209750533103943,0.4584634602069855,0.11149337142705917,0.1771172285079956,0.04747135564684868,-0.26578083634376526,-0.27312248945236206,0.06101210042834282,-0.08607525378465652,-0.13657398521900177,0.2984344959259033,0.09549563378095627,0.10821902006864548,-0.17428983747959137,0.2002790868282318,-0.12059619277715683,0.002932571340352297,-0.06494086235761642,0.0555533841252327,-0.16155174374580383,0.15781162679195404,-0.07600804418325424,0.2217143476009369,-0.2852204144001007,-0.10662137717008591,0.17010140419006348,-0.08720190078020096,0.11673294752836227,-0.015851423144340515,-0.004350621253252029,-0.18854819238185883,0.08603251725435257,0.2567777931690216,-0.0913146585226059,0.014196486212313175,-0.015891436487436295,0.20464147627353668,-0.025759950280189514,-0.04745570942759514,-0.03500349819660187,-0.07693620026111603,-0.19779066741466522,0.2270510047674179,-0.0785001814365387,0.1680341362953186,0.2834121286869049,-0.10592014342546463,-0.28403058648109436,0.23117437958717346,0.18134216964244843,-0.12705472111701965,0.18059216439723969,-0.10881489515304565,0.034007005393505096,0.02539871633052826,-0.04300401359796524,-0.2147204726934433,-0.260728120803833,0.052036430686712265,-0.013868949376046658,-0.14440396428108215,0.145053431391716,0.044854842126369476,-0.20201228559017181,-0.2251635640859604,-0.04206779599189758,0.006622652988880873,-0.044151388108730316,-0.3652445375919342,0.23245543241500854,0.1827837973833084,0.07040008902549744,0.0346907302737236,-0.051226656883955,0.3182242810726166,0.009955127723515034,-0.010899134911596775,-0.13724105060100555,0.1481127291917801,-0.36405569314956665,0.06981118023395538,-0.08312945067882538,-0.12402207404375076,0.12075365334749222,-0.19070197641849518,0.16172578930854797,-0.18622557818889618,0.1017332449555397,0.10783557593822479,-0.2457302212715149,0.10279659926891327,-0.00881977193057537,-0.06396524608135223,-0.06703506410121918,-0.030362630262970924,0.22689726948738098,-0.1380377858877182,0.2662043273448944,0.05847065523266792,-0.2004285752773285,0.007341891527175903,-0.14971639215946198,0.07645419239997864,0.1973850578069687,0.009426168166100979,-0.03691947087645531,0.13463276624679565,0.05661340057849884,-0.10505605489015579,-0.05266076326370239,-0.2032659351825714,-0.02076827362179756,0.0252631064504385,-0.1858021765947342,0.07226685434579849,0.35510963201522827,0.17808303236961365,-0.043144192546606064,0.2125699371099472,-0.17159530520439148,-0.06623286008834839,0.1699567288160324,0.08116555958986282,0.3674905598163605,0.12441271543502808,0.11214466392993927,0.10740064084529877,-0.20248258113861084,-0.07636915892362595,0.37129080295562744,0.022069957107305527,-0.1361871361732483,-0.19988712668418884,-0.25056079030036926,0.24946826696395874,0.013504117727279663,-0.3894535005092621,-0.05685264989733696,0.020579006522893906,-0.04803001880645752,0.23130600154399872,-0.0357261598110199,0.055894993245601654,-0.010841277427971363,-0.005155018996447325,0.0005993228405714035,0.22780470550060272,0.06863308697938919,-0.1408362090587616,-0.09246686100959778,-0.23085129261016846,0.06918081641197205,0.016166966408491135,0.37298139929771423,-0.14388969540596008,0.10690692812204361,0.14972609281539917,-0.1852683573961258,-0.15256869792938232,0.02153720334172249,0.19848918914794922,-0.1166558712720871,0.03002975508570671,-0.22515858709812164,0.07682675868272781,0.2762582302093506,0.027438048273324966,0.010035675019025803,0.017358671873807907,-0.42970725893974304,0.13946422934532166,0.16126538813114166,-0.11460278183221817,-0.3963172733783722,-0.22707882523536682,0.07374101132154465,-0.10096365213394165,-0.6676937937736511,0.11618714034557343,-0.04966931417584419,-0.10813823342323303,-0.0031269912142306566,0.0606689527630806,-0.07707791775465012,0.16594789922237396,-0.14727061986923218,-0.007798869628459215,0.0585508793592453,-0.06291554868221283,0.024048367515206337,-0.0027363128028810024,-0.01101762242615223,0.07149886339902878,-0.05116431042551994,0.1974751204252243,0.0282763559371233,0.003913932014256716,0.028311096131801605,-0.20340000092983246,-0.08620934933423996,0.0034879380837082863,-0.0251160915941,-0.14342443645000458,-0.10919547080993652,-0.04016224294900894,0.33876073360443115,-0.0006466791382990777,0.07468901574611664,0.23512661457061768,-0.030840206891298294,-0.0032998884562402964,-0.03995921090245247,-0.16559399664402008,0.12721911072731018,-0.019812671467661858,-0.15190403163433075,0.12161456793546677,-0.14499366283416748,0.12485786527395248,-0.11362136900424957,0.17140108346939087,0.311190664768219,0.06227947026491165,-0.04485074803233147,0.10821730643510818,0.08154676854610443,-0.04022516682744026,0.10540357232093811,0.13483427464962006,-0.05889013409614563,-0.13961365818977356,0.430004358291626,0.39481261372566223,0.012117521837353706,-0.2391253411769867,-0.11819076538085938,0.0018458914710208774,-0.00005325938036548905,0.0672244057059288,0.00427708076313138,-0.16794846951961517,-0.11457996815443039,0.10477939993143082,-0.12161054462194443,0.04842953011393547,0.36976873874664307,0.06727682054042816,0.3557226359844208,0.019283268600702286,-0.08769195526838303,0.07137960940599442,0.05338197946548462,-0.23398339748382568,0.05705884471535683,0.12102943658828735,-0.11044714599847794,-0.15981192886829376,-0.08050215244293213,-0.384365439414978,0.05398823320865631,0.2030712068080902,-0.044789236038923264,-0.09683068096637726,-0.10439327359199524,-0.00844650436192751,-0.13119211792945862,0.1761796921491623,-0.27453672885894775,0.16140705347061157,-0.029248736798763275,-0.17670224606990814,-0.25036734342575073,-0.1672748178243637,-0.17628976702690125,-0.0010597468353807926,0.06671886146068573,-0.11317650228738785,0.10044123232364655,0.016643427312374115,0.13336686789989471,0.08561071753501892,-0.09317140281200409,-0.20124486088752747,-0.04852893948554993,-0.155221626162529,-0.011001750826835632,-0.14068999886512756,0.07758644968271255,0.08545753359794617,-0.13503077626228333,0.04959584400057793,0.18195754289627075,0.10503145307302475,0.058714527636766434,-0.1778157651424408,-0.11986400187015533,0.04330093041062355,-0.16032984852790833,-0.03348447009921074,0.11343207955360413,0.10502083599567413,0.2353041023015976,-0.04215062037110329,0.01051921397447586,0.03943755477666855,-0.010107170790433884,-0.060506634414196014,0.06952560693025589,-0.0731271505355835,-0.18022269010543823,-0.10984731465578079,-0.14142632484436035,-0.040629781782627106,-0.058686621487140656,0.031737636774778366,0.030865861102938652,-0.079657182097435,-0.32351332902908325,-0.20464050769805908,0.08428840339183807,0.14671368896961212,0.08856625109910965,0.013562062755227089,-0.11199383437633514,0.034383032470941544,-0.19659589231014252,0.161216601729393,0.027936644852161407,0.3707807958126068,0.0983620285987854,-0.22450493276119232,-0.0892258957028389,0.010901440866291523,-0.01106164138764143,0.007076201029121876,0.24921676516532898,0.19595035910606384,0.1877565085887909,-0.0321216881275177,0.09386841952800751,-0.048818133771419525,-0.020938601344823837,0.039376214146614075,-0.001138951163738966,0.10572155565023422,-0.09871766716241837,-0.07353024929761887,0.17190544307231903,-0.10489772260189056,-0.022386716678738594,-0.3067200183868408,-0.03163312375545502,0.051422860473394394,-0.03212229907512665,-0.004387460183352232,-0.2396424263715744,0.025970544666051865,0.12822920083999634,0.23710393905639648,0.20607422292232513,-0.09313073754310608,0.0708155557513237,0.08951940387487411,0.09940789639949799,-0.17928287386894226,-0.2222040742635727,0.23482045531272888,0.1658961921930313,-0.1491396576166153,-0.01064562238752842,0.013320366851985455,0.07754521071910858,-0.14203599095344543,-0.010526389814913273,0.08826091140508652,-0.2968994081020355,-0.07954645901918411,0.0352817066013813,-0.013913631439208984,0.007780073676258326,0.05947009474039078,-0.11908797174692154,-0.048969633877277374,0.050376031547784805,-0.022906731814146042,0.17696134746074677,-0.19245491921901703,0.05386665090918541,-0.151767298579216,-0.18689784407615662,0.05385534092783928,-0.014162342064082623,0.039203185588121414,-0.05425133556127548,0.2663033604621887,0.06752149015665054,-0.13852548599243164,0.02043418399989605,-0.10341198742389679,0.006104595493525267,0.0057356939651072025,0.12337528169155121,-0.02037324383854866,0.08606718480587006,0.03808172419667244,0.18666262924671173,0.34356972575187683,0.0830727368593216,0.04050919786095619,-0.2928166389465332,-0.24571402370929718,0.19798550009727478,-0.046494629234075546,-0.13122309744358063,0.20636028051376343,0.14012378454208374,0.21018952131271362,-0.1027819886803627,-0.2364487200975418,0.2295614629983902,0.13347536325454712,0.24251912534236908,0.06855333596467972,-0.24418888986110687,-0.06753670424222946,-0.056678514927625656,0.13351444900035858,0.3631102740764618,0.03479475900530815,-0.15663661062717438,-0.01788743957877159,0.012004883028566837,-0.08224526047706604,-0.23362508416175842,-0.051988858729600906,-0.24194350838661194,-0.17084166407585144,-0.10597487539052963,-0.2424093633890152,-0.09736555814743042,-0.010979566723108292,-0.0978933796286583,0.12214115262031555,-0.22786499559879303,-0.04976176097989082,0.052243754267692566,-0.07911871373653412,0.14018651843070984,0.03700728714466095,0.015572194010019302,-0.06373834609985352,0.18373166024684906,-0.0007330239750444889,0.08831589668989182,-0.06902627646923065,-0.198125958442688,-0.1023944839835167,-0.2181367725133896,-0.22472305595874786,-0.028216524049639702,-0.04482784867286682,-0.11698485165834427,-0.06661195307970047,-0.01477850042283535,0.0500168539583683,-0.12125705927610397,-0.25552448630332947,0.059388622641563416,-0.026659490540623665,0.1744392216205597,-0.17961938679218292,0.21706949174404144,0.07490438222885132,-0.0007549027213826776,-0.1280643492937088,0.24343347549438477,0.2589612901210785,0.10256794095039368,-0.044925130903720856,-0.16190245747566223,-0.1491980254650116,-0.24851422011852264,0.05642271414399147,-0.02045617438852787,0.13751234114170074,0.05987968295812607,0.24826419353485107,0.10060586035251617,0.08647362142801285,-0.11767272651195526,0.0478651225566864,0.08959147334098816,-0.17027674615383148,-0.08589392155408859,-0.19390492141246796,-0.1827288568019867,-0.34933802485466003,-0.1500631868839264,-0.06791437417268753,0.05869477242231369,0.20047014951705933,0.24410396814346313,0.2882626950740814,-0.2603006958961487,0.05019122362136841,-0.515742838382721,0.047915853559970856,-0.2227853238582611,0.1709703654050827,-0.34656214714050293,0.0449298620223999,0.14139986038208008,-0.01335360761731863,-0.06780461221933365,-0.12941592931747437,0.09503936022520065,-0.013808146119117737,0.088486447930336,0.05209782347083092,-0.24254845082759857,0.15680715441703796,-0.06204818934202194,0.10426550358533859,-0.052115548402071,0.05565294995903969,-0.13431602716445923,0.11711204051971436,-0.13742555677890778,0.14872299134731293,0.06941515952348709,-0.010441232472658157,-0.11857468634843826,-0.28937646746635437,-0.13786134123802185,-0.15769512951374054,-0.13698257505893707,-0.180431067943573,0.14312060177326202,0.19085077941417694,0.07946258038282394,-0.4090074300765991,0.029525676742196083,-0.1248454824090004,0.005161006934940815,0.17570729553699493,0.16049082577228546,0.02802780270576477,0.26993754506111145,0.0814737007021904,0.07571811228990555,-0.14666128158569336,-0.2385294884443283,0.2845052480697632,0.07125616073608398,-0.19265654683113098,-0.009505106136202812,0.00641259690746665,-0.0489201620221138,0.07752890139818192,-0.11911031603813171,0.07087679207324982,-0.19888836145401,0.1538711041212082,0.2357243001461029,0.20161865651607513,0.12057328969240189,-0.07018658518791199,-0.02703256532549858,0.24155184626579285,0.2263905555009842,0.2922930121421814,-0.18586483597755432,0.22120410203933716,0.1470840722322464,0.04983367398381233,0.11178062856197357,-0.19272495806217194,0.02317388355731964,0.006581918802112341,-0.05367496237158775,0.10089603811502457,0.11850503087043762,-0.023090872913599014,-0.014770014211535454,-0.027420293539762497,0.08055859804153442,-0.020123548805713654,-0.044770415872335434,0.018236778676509857,-0.03767307847738266,0.19157947599887848,-0.09917792677879333,-0.09648043662309647,-0.057787783443927765,-0.19098637998104095,-0.08199228346347809,-0.16066783666610718,0.00846641045063734,-0.14262859523296356,0.02843828685581684,0.19454210996627808,-0.03443592041730881,0.25608596205711365,0.1581069976091385,0.006782060954719782,0.18806672096252441,-0.011135672219097614,-0.12144048511981964,0.10593926161527634,0.14893843233585358,-0.3428727686405182,0.07415619492530823,-0.05097518116235733,-0.02693823166191578,0.03320886194705963,0.03054373897612095,0.11585897952318192,0.1210729256272316,0.2392071783542633,0.28921493887901306,-0.23622941970825195,0.07837293297052383,0.0790184810757637,-0.11042419075965881,-0.1273842304944992,-0.018533596768975258,0.16488106548786163,-0.037241388112306595,0.20122464001178741,-0.10032767057418823,-0.1593831330537796,0.03857290744781494,0.1725219339132309,0.0823034942150116,0.05055423080921173,0.05915745347738266,-0.16574929654598236,-0.2212616205215454,0.045202068984508514,0.14294344186782837,0.23645640909671783,-0.09922616928815842,-0.04927585646510124,-0.15217866003513336,0.10796777158975601,-0.01248952653259039,-0.139788419008255,-0.03799252584576607,0.17024296522140503,0.6004045009613037,0.2137577086687088,-0.1101905107498169,-0.14149819314479828,-0.1049422025680542,-0.10222723335027695,0.0606660470366478,-0.16577009856700897,0.0017385486280545592,0.2842606008052826,-0.04414999857544899,-0.08563137799501419,-0.21390238404273987,0.025623558089137077,0.2781464457511902,0.5473482012748718,0.1528208702802658,-0.0035390430130064487,-0.4389115571975708,-0.20720413327217102,0.049845654517412186,0.25462397933006287,0.09673776477575302,0.03512991592288017,0.22879548370838165,-0.05256517231464386,0.030038459226489067,0.19568651914596558,0.03556547313928604,-0.1286526471376419,0.2843579947948456,-0.016966000199317932,-0.09786763787269592,0.08088815957307816,0.026242898777127266,0.16991959512233734,0.15038780868053436,-0.031393665820360184,0.167149156332016,0.042911093682050705,-0.0817464217543602,-0.03999324142932892,-0.08376268297433853,-0.02683153748512268,-0.0971711277961731,-0.1875201016664505,-0.127858504652977,-0.015484007075428963,-0.08279532194137573,-0.3482453525066376,0.20221377909183502,0.07429705560207367,-0.17996147274971008,-0.16026051342487335,-0.07425743341445923,-0.13645786046981812,0.17206674814224243,-0.11737803369760513,-0.2501212954521179,-0.17997519671916962,0.036024708300828934,0.08512464910745621,0.32633906602859497,0.08271799236536026,