{
    "version": "0.5.1",
    "metadata":
    {
        "date":
        {
            "year": 2023,
            "month": 6,
            "day": 21,
            "hour": 19,
            "minute": 1,
            "second": 56
        },
        "loudness": -11.699484825134277,
        "gain": 0.05570475600980279,
        "name": "Blues Deluxe Clean2",
        "modeled_by": "MOD Audio",
        "gear_type": "amp",
        "gear_make": "Fender",
        "gear_model": "Blues Deluxe Re-issue PR246",
        "tone_type": "clean"
    },
    "architecture": "WaveNet",
    "config":
    {
        "layers":
        [
            {
                "input_size": 1,
                "condition_size": 1,
                "head_size": 2,
                "channels": 4,
                "kernel_size": 3,
                "dilations":
                [
                    1,
                    2,
                    4,
                    8,
                    16,
                    32,
                    64
                ],
                "activation": "Tanh",
                "gated": false,
                "head_bias": false
            },
            {
                "input_size": 4,
                "condition_size": 1,
                "head_size": 1,
                "channels": 2,
                "kernel_size": 3,
                "dilations":
                [
                    128,
                    256,
                    512,
                    1,
                    2,
                    4,
                    8,
                    16,
                    32,
                    64,
                    128,
                    256,
                    512
                ],
                "activation": "Tanh",
                "gated": false,
                "head_bias": true
            }
        ],
        "head": null,
        "head_scale": 0.02
    },
    "weights":
    [
        -0.2291920781135559,
        1.0069676637649536,
        -0.9552415013313293,
        -0.6104976534843445,
        -0.2614150941371918,
        0.5034001469612122,
        -0.2316303253173828,
        0.2272239476442337,
        0.26967599987983704,
        -0.314159631729126,
        -0.0988694429397583,
        -0.3739515542984009,
        0.05545205622911453,
        -0.1880100965499878,
        -0.4307871460914612,
        0.36081016063690186,
        0.11368948966264725,
        0.05713304504752159,
        0.08393258601427078,
        -0.41908591985702515,
        0.2378511279821396,
        0.4897029399871826,
        0.21236871182918549,
        0.07352408766746521,
        -0.2955780029296875,
        0.29398107528686523,
        0.12639589607715607,
        -0.5210328102111816,
        -0.23739445209503174,
        -0.5938892364501953,
        0.3123883903026581,
        0.8623555898666382,
        -0.649691641330719,
        -0.3848573565483093,
        -0.7870773673057556,
        0.19897198677062988,
        0.11393211036920547,
        -0.33914780616760254,
        0.580865204334259,
        0.3760322630405426,
        0.2862268388271332,
        -0.4952167272567749,
        0.4927782416343689,
        -0.20614774525165558,
        -0.35940781235694885,
        0.3445855975151062,
        0.11784329265356064,
        0.3231417238712311,
        -0.5850343108177185,
        -0.08961508423089981,
        0.3271513879299164,
        -0.18737873435020447,
        0.04221620783209801,
        0.013935036957263947,
        0.025583811104297638,
        -0.045507706701755524,
        -0.16777631640434265,
        -0.5370683670043945,
        -0.9596405029296875,
        -0.0556069016456604,
        0.5971329808235168,
        -0.37927207350730896,
        -0.4984382390975952,
        -0.2050153762102127,
        0.16460749506950378,
        -0.49860167503356934,
        -0.18242281675338745,
        0.03831374645233154,
        0.4008960425853729,
        0.3033682405948639,
        -0.6272115707397461,
        -0.42305800318717957,
        0.196160227060318,
        0.7699193954467773,
        0.3387115001678467,
        0.4416790008544922,
        0.02740274928510189,
        -0.2690134346485138,
        -0.052412815392017365,
        -0.21217840909957886,
        -0.36180126667022705,
        0.5335161685943604,
        -0.00729757035151124,
        -0.34614768624305725,
        0.22245845198631287,
        -0.24745714664459229,
        -0.2099243700504303,
        0.0712360143661499,
        -0.031579598784446716,
        -0.14034076035022736,
        -0.10698569566011429,
        0.2455732822418213,
        0.25510379672050476,
        0.3667154908180237,
        -0.42911699414253235,
        -0.2549567222595215,
        0.2520185708999634,
        -0.11445853114128113,
        0.026344381272792816,
        0.27878496050834656,
        0.3641570210456848,
        0.23859457671642303,
        -0.28426703810691833,
        0.03319565951824188,
        -0.5416166186332703,
        0.6838453412055969,
        -0.359429270029068,
        -0.45904991030693054,
        0.47306177020072937,
        -0.1942140758037567,
        0.19719591736793518,
        0.31253400444984436,
        -0.35284605622291565,
        0.4676048159599304,
        -0.2663332521915436,
        -0.20162950456142426,
        -0.45216694474220276,
        0.14292654395103455,
        -0.2677474319934845,
        -0.09224481135606766,
        0.23728789389133453,
        -0.17190343141555786,
        -0.30584073066711426,
        -0.05406922101974487,
        -0.35048022866249084,
        -0.008239244110882282,
        -0.3274324834346771,
        0.06880486756563187,
        -0.10934042930603027,
        -0.2066604197025299,
        -0.0447225496172905,
        0.15507864952087402,
        -0.6172628402709961,
        -0.1956128180027008,
        0.35203686356544495,
        -0.19850854575634003,
        0.4130111038684845,
        -0.0303835216909647,
        0.9694841504096985,
        0.6983469128608704,
        0.8441511988639832,
        0.5497085452079773,
        1.1745119094848633,
        0.08846127241849899,
        0.20889437198638916,
        0.3365107476711273,
        0.6521185636520386,
        -0.0303375031799078,
        -0.453870952129364,
        -0.821868896484375,
        -0.16073189675807953,
        0.11947575956583023,
        -0.11737426370382309,
        0.33327925205230713,
        0.12370381504297256,
        -0.36651861667633057,
        0.273586630821228,
        -0.33814844489097595,
        -0.33530744910240173,
        0.011615170165896416,
        0.22806495428085327,
        0.3436928689479828,
        -0.38896238803863525,
        -0.044415175914764404,
        0.38718181848526,
        -0.005609793122857809,
        -0.30615830421447754,
        0.07973138242959976,
        -0.20486947894096375,
        -0.09681814163923264,
        0.3628292679786682,
        0.025733506307005882,
        0.06332948058843613,
        -0.10129110515117645,
        0.34042298793792725,
        0.9393001198768616,
        -0.590434730052948,
        -0.20367522537708282,
        0.1918068379163742,
        -0.13519281148910522,
        0.19433332979679108,
        -0.2377055585384369,
        0.03236227110028267,
        -0.07074791938066483,
        0.131993368268013,
        0.018342476338148117,
        0.03615615889430046,
        -0.007791252341121435,
        -0.2528931796550751,
        0.29682469367980957,
        0.26381662487983704,
        -0.024266259744763374,
        -0.11073371767997742,
        0.05456063523888588,
        -0.02408377081155777,
        -0.06269048154354095,
        -0.25186488032341003,
        0.6138569712638855,
        0.5633156299591064,
        0.362691730260849,
        -0.23000812530517578,
        0.015050720423460007,
        -0.2997984290122986,
        -0.12174773961305618,
        -0.14241549372673035,
        -0.0006892954115755856,
        0.10770639032125473,
        0.21849413216114044,
        0.1730005294084549,
        -0.02489655837416649,
        -0.21879515051841736,
        -0.21092480421066284,
        0.3993717432022095,
        -0.2944764494895935,
        0.09963656216859818,
        0.05831670016050339,
        -0.2335575371980667,
        -0.3926410377025604,
        0.48960310220718384,
        -0.35202568769454956,
        -0.09077040106058121,
        0.8370325565338135,
        0.5435355305671692,
        0.07094985246658325,
        -0.474383145570755,
        0.2539443075656891,
        -0.1896817833185196,
        -0.2774336636066437,
        -0.18208721280097961,
        -0.0063303685747087,
        -0.07021565735340118,
        0.3997390866279602,
        -0.061169326305389404,
        0.07129936665296555,
        0.10266532748937607,
        -0.368583619594574,
        0.10228555649518967,
        -0.30320224165916443,
        -0.0768112912774086,
        -0.358487069606781,
        0.14502455294132233,
        0.2223074585199356,
        0.0415494441986084,
        -0.04085446894168854,
        -0.02247725985944271,
        -0.32591894268989563,
        0.16600218415260315,
        -0.7510679960250854,
        0.012092217803001404,
        -0.25091037154197693,
        -0.6036275029182434,
        0.34376561641693115,
        0.08301115036010742,
        0.18219712376594543,
        -0.23429712653160095,
        0.039790160953998566,
        -0.46692201495170593,
        -0.0006453735404647887,
        0.19550201296806335,
        -0.497427761554718,
        -0.30484095215797424,
        -0.04561494290828705,
        0.04019844904541969,
        0.7140523791313171,
        -0.04698232188820839,
        0.11422926932573318,
        -0.07126333564519882,
        0.1976645290851593,
        0.6561794281005859,
        0.23134608566761017,
        -0.27268722653388977,
        0.384945809841156,
        -0.2934549152851105,
        0.3249909281730652,
        0.08311287313699722,
        -0.58634352684021,
        0.4909180700778961,
        -0.8558862209320068,
        -0.3695884644985199,
        0.2282916158437729,
        0.03653733432292938,
        -0.28361085057258606,
        -0.21857444941997528,
        0.13639643788337708,
        0.05153266340494156,
        0.5584612488746643,
        -0.30352267622947693,
        0.10585051774978638,
        -0.3287024199962616,
        -0.38408753275871277,
        -0.90511155128479,
        0.6611638069152832,
        1.0268958806991577,
        -0.03170838952064514,
        -0.2527037262916565,
        -0.8396349549293518,
        -0.22980089485645294,
        -0.6206380128860474,
        -0.14573229849338531,
        -0.1393452286720276,
        -0.905750572681427,
        -0.4620576798915863,
        -0.5086241364479065,
        0.10261822491884232,
        0.030186131596565247,
        -0.25350555777549744,
        0.012381857261061668,
        0.12473388761281967,
        0.20163768529891968,
        0.2884548008441925,
        -0.08079572021961212,
        0.12895694375038147,
        0.24718183279037476,
        -0.010769273154437542,
        -0.32498082518577576,
        0.11565445363521576,
        0.03988826647400856,
        0.04041457176208496,
        -0.31337565183639526,
        -0.18879765272140503,
        0.2175029218196869,
        -0.11301203817129135,
        -0.7688352465629578,
        0.04892038181424141,
        0.002745816484093666,
        0.5608603954315186,
        0.05884191021323204,
        -0.2787872850894928,
        -0.3380427956581116,
        -0.3256785273551941,
        0.027779482305049896,
        -0.8485324382781982,
        0.19033490121364594,
        -0.12014725804328918,
        -0.30259695649147034,
        -0.07329044491052628,
        -0.11469651758670807,
        0.3259124457836151,
        -0.22501131892204285,
        -0.17401893436908722,
        -0.194512739777565,
        -0.31233373284339905,
        -0.10713180154561996,
        0.05969216674566269,
        -0.2722770571708679,
        0.35150933265686035,
        0.007198156323283911,
        0.12109710276126862,
        0.0716223418712616,
        -0.16535453498363495,
        0.22378428280353546,
        0.35642009973526,
        0.085063137114048,
        0.5289939045906067,
        -0.3427870273590088,
        -0.14684246480464935,
        -0.07682124525308609,
        0.06089784577488899,
        0.02007419988512993,
        0.10713676363229752,
        -0.2065441757440567,
        -0.5065220594406128,
        -0.32666337490081787,
        0.38679784536361694,
        0.5157875418663025,
        0.4075332283973694,
        0.3332802355289459,
        0.010027342475950718,
        -0.5205214619636536,
        -0.0541723370552063,
        -0.3160598874092102,
        0.40375441312789917,
        -0.36232656240463257,
        0.022444963455200195,
        -0.40355756878852844,
        0.20898273587226868,
        0.22982482612133026,
        0.6183707118034363,
        0.08014120161533356,
        0.9669064283370972,
        0.26118502020835876,
        0.010073769837617874,
        0.12255997210741043,
        0.2738356292247772,
        0.2633056342601776,
        -0.09407513588666916,
        0.571626603603363,
        -0.041277237236499786,
        0.15865544974803925,
        -0.102162204682827,
        -0.2776888906955719,
        0.05080188438296318,
        -0.12872470915317535,
        -0.0809636116027832,
        0.052817802876234055,
        0.39019694924354553,
        0.14956876635551453,
        -0.17001725733280182,
        -0.41747522354125977,
        -0.2066919058561325,
        0.04608210176229477,
        0.22813330590724945,
        -0.27994632720947266,
        0.21213379502296448,
        -0.25598204135894775,
        -0.08039220422506332,
        0.170194610953331,
        -0.5938290357589722,
        0.1366884857416153,
        0.0947515219449997,
        -0.5028705596923828,
        -0.20324718952178955,
        0.01129383035004139,
        0.5137134790420532,
        -0.2593107521533966,
        -0.21025750041007996,
        -0.21030741930007935,
        -0.03968558833003044,
        0.01853669434785843,
        0.10705555975437164,
        -0.11188498139381409,
        -0.09180453419685364,
        0.33317065238952637,
        0.29694846272468567,
        0.2447020411491394,
        -0.21790315210819244,
        0.17305655777454376,
        0.017654338851571083,
        -0.11627108603715897,
        0.23409149050712585,
        0.1369217187166214,
        0.1792958676815033,
        0.16213436424732208,
        0.117001011967659,
        0.050830353051424026,
        -0.07811300456523895,
        0.23988385498523712,
        -0.43394649028778076,
        0.38781845569610596,
        -0.5861325263977051,
        0.04143063351511955,
        -0.5275483131408691,
        0.45094946026802063,
        -0.019291004166007042,
        -0.3940630257129669,
        0.16323095560073853,
        -0.40047457814216614,
        0.47954827547073364,
        0.10854904353618622,
        -0.31462883949279785,
        0.5448938608169556,
        0.2204408198595047,
        0.6302664279937744,
        0.06819386035203934,
        -0.4059940278530121,
        0.30264490842819214,
        -0.07435134798288345,
        0.3148145079612732,
        -0.3717971444129944,
        -0.21781690418720245,
        -0.15576957166194916,
        -0.24857938289642334,
        0.247861847281456,
        0.09786286950111389,
        0.16213694214820862,
        -0.2690272033214569,
        0.13833558559417725,
        0.17793790996074677,
        0.4919157326221466,
        -0.015945542603731155,
        0.08185656368732452,
        -0.21013568341732025,
        -0.00900626927614212,
        0.09855802357196808,
        -0.049071576446294785,
        -0.39974868297576904,
        -0.23876890540122986,
        0.32810014486312866,
        -0.03381470963358879,
        -0.0345160998404026,
        -0.4845547378063202,
        -0.18732033669948578,
        -0.1287388950586319,
        0.10461951047182083,
        0.18651945888996124,
        0.33557721972465515,
        -0.37244880199432373,
        -0.11696483939886093,
        -0.08533339202404022,
        0.3737192749977112,
        -0.1354132741689682,
        -0.4092608392238617,
        -0.5086280107498169,
        -0.10520710051059723,
        -0.03646990284323692,
        -0.4088139533996582,
        -0.29159948229789734,
        -0.23010560870170593,
        0.3131692409515381,
        0.2914656698703766,
        -0.03627464920282364,
        -0.164553701877594,
        0.3656572699546814,
        0.21365055441856384,
        0.381763756275177,
        0.11892694979906082,
        0.0273786261677742,
        0.7068605422973633,
        -0.2604043781757355,
        -0.03466847166419029,
        -0.06255016475915909,
        0.32321086525917053,
        0.148992657661438,
        -0.2226550579071045,
        0.06637201458215714,
        0.14174246788024902,
        -0.4579084515571594,
        0.06192396208643913,
        0.6808499097824097,
        0.16929100453853607,
        0.5555508732795715,
        -0.5286126136779785,
        0.1649543195962906,
        -0.008800468407571316,
        -0.7079212665557861,
        0.1741313934326172,
        0.549967348575592,
        -0.16211192309856415,
        -0.40690404176712036,
        -0.17587442696094513,
        0.8095920085906982,
        0.2749986946582794,
        -0.5323790311813354,
        -0.3698858320713043,
        -0.384865939617157,
        -0.020587150007486343,
        0.17065776884555817,
        -1.2091058492660522,
        -1.043108582496643,
        1.216590404510498,
        -0.5639520883560181,
        1.017302393913269,
        0.7744871377944946,
        -1.3948732614517212,
        0.2734743058681488,
        0.6594654321670532,
        -0.2389918714761734,
        -0.05670228973031044,
        -0.36393892765045166,
        0.23684857785701752,
        -0.22578871250152588,
        0.175324484705925,
        -0.1832742542028427,
        -0.3015051484107971,
        0.0997723713517189,
        -0.6338268518447876,
        0.11821583658456802,
        -0.23613260686397552,
        0.10937522351741791,
        0.12311555445194244,
        -0.25236424803733826,
        -0.30464237928390503,
        -0.547730565071106,
        0.35122406482696533,
        -0.32098886370658875,
        0.22226615250110626,
        -0.17723384499549866,
        0.16311612725257874,
        0.48106563091278076,
        -0.052998580038547516,
        1.4504032135009766,
        1.0391263961791992,
        -0.33518436551094055,
        -0.42945608496665955,
        -0.1492660790681839,
        0.2103821337223053,
        0.17305169999599457,
        -0.2956620156764984,
        0.06043323501944542,
        0.4563489258289337,
        -0.04611425846815109,
        -0.08641207963228226,
        -0.718673586845398,
        -0.04084371402859688,
        0.013827605172991753,
        0.28013330698013306,
        0.2877503037452698,
        0.36899369955062866,
        0.5907350182533264,
        0.7665120363235474,
        -0.05736763775348663,
        -0.54160076379776,
        -0.4082818925380707,
        0.654303789138794,
        0.3372977375984192,
        0.3616858124732971,
        -0.24546454846858978,
        0.03089306317269802,
        0.25095975399017334,
        -0.2751601040363312,
        -0.5320590734481812,
        0.25517311692237854,
        -0.039959073066711426,
        0.07066208124160767,
        -0.6642734408378601,
        -0.03481977805495262,
        0.02623879164457321,
        0.021737638860940933,
        0.04062078520655632,
        0.1525966376066208,
        -0.1698426753282547,
        -0.7942193746566772,
        0.09149565547704697,
        -0.7355116009712219,
        0.1921161264181137,
        0.45180487632751465,
        0.3776214122772217,
        0.2230934351682663,
        1.3418940305709839,
        1.7066973447799683,
        0.04712561145424843,
        -0.06682933121919632,
        -0.23523324728012085,
        -0.1934470385313034,
        -0.0921519547700882,
        -0.11584443598985672,
        0.3489910066127777,
        -0.20135191082954407,
        -0.4535452723503113,
        0.18297185003757477,
        -0.2017989605665207,
        0.014660840854048729,
        0.40232276916503906,
        0.04576271399855614,
        0.6964375376701355,
        -0.4409567415714264,
        -0.25626054406166077,
        -0.7425222396850586,
        -0.2823120951652527,
        0.38242244720458984,
        0.08911025524139404,
        0.03685487434267998,
        0.19781839847564697,
        0.05421910807490349,
        -0.30458325147628784,
        0.41832754015922546,
        -0.002831108635291457,
        0.35628455877304077,
        -0.27293115854263306,
        0.03532467037439346,
        0.5602430701255798,
        -0.07110728323459625,
        0.34854656457901,
        0.29680806398391724,
        -1.1126006841659546,
        0.2247355431318283,
        -0.23971271514892578,
        0.41209205985069275,
        -0.3645014762878418,
        0.386945903301239,
        0.17507262527942657,
        -0.133728489279747,
        0.48216328024864197,
        0.011541626416146755,
        0.01177801750600338,
        0.3876592516899109,
        -0.15051786601543427,
        0.10822322964668274,
        -0.26259759068489075,
        0.09688439965248108,
        -0.39489173889160156,
        -0.3048356771469116,
        -0.22286412119865417,
        0.21628239750862122,
        0.27908748388290405,
        0.17554517090320587,
        -0.05056627839803696,
        0.2815399169921875,
        0.5639292597770691,
        -0.23464339971542358,
        0.5255268812179565,
        -0.4098123610019684,
        0.5230986475944519,
        -0.049757663160562515,
        0.5369920134544373,
        0.16260327398777008,
        -0.15324269235134125,
        -0.3018079698085785,
        0.19967587292194366,
        0.10481712222099304,
        -0.8308910727500916,
        -0.1661251187324524,
        0.1555747538805008,
        0.6501991748809814,
        -0.2885708808898926,
        -0.07450342923402786,
        0.8936501741409302,
        -0.53989577293396,
        0.13468755781650543,
        -0.005766196642071009,
        -0.7920556664466858,
        0.4060247242450714,
        -0.624894917011261,
        0.3592327833175659,
        -0.4253891408443451,
        -0.012316067703068256,
        0.17571969330310822,
        0.5373433828353882,
        -0.3010115623474121,
        0.23768827319145203,
        -0.14969688653945923,
        -0.08346293121576309,
        -0.33145639300346375,
        -0.5920848846435547,
        0.5543326735496521,
        -0.32723602652549744,
        0.0034884773194789886,
        0.07377313822507858,
        0.4524311125278473,
        0.07096350193023682,
        0.4826652705669403,
        -0.31568318605422974,
        -0.5365380048751831,
        -0.07315865904092789,
        0.10106207430362701,
        -0.6428553462028503,
        0.6352310180664062,
        -0.4680108428001404,
        0.10091044753789902,
        -0.05326620489358902,
        -0.3880135118961334,
        0.5721626281738281,
        0.15843363106250763,
        -0.3688245117664337,
        -0.1963193118572235,
        -0.0076364208944141865,
        0.26581713557243347,
        -0.4997241795063019,
        0.0803757980465889,
        0.21509286761283875,
        -0.3920484185218811,
        0.018400758504867554,
        -0.14066912233829498,
        -0.16754046082496643,
        0.4612119793891907,
        0.46595820784568787,
        0.38675567507743835,
        -0.33153867721557617,
        -0.10125351697206497,
        0.17087897658348083,
        -0.04101859778165817,
        0.015749424695968628,
        -0.21272754669189453,
        0.286094605922699,
        0.023994790390133858,
        -0.2534387707710266,
        -0.15238533914089203,
        0.0702843964099884,
        0.32255658507347107,
        -0.45815515518188477,
        -0.20506897568702698,
        0.21838843822479248,
        -0.31175094842910767,
        -0.10300946235656738,
        0.12298709154129028,
        -0.04943408444523811,
        -0.16329795122146606,
        0.9183960556983948,
        -0.6520529389381409,
        -0.17342478036880493,
        0.1789386123418808,
        -0.6841246485710144,
        0.2400125414133072,
        0.22216910123825073,
        0.07961579412221909,
        -0.01264070626348257,
        0.46715959906578064,
        -0.2255765050649643,
        0.1307971328496933,
        -0.594652533531189,
        -0.014739885926246643,
        0.01237514615058899,
        -0.18437723815441132,
        0.004690900910645723,
        -0.3801949918270111,
        -0.17607150971889496,
        -0.28954967856407166,
        -0.16089951992034912,
        -0.048512209206819534,
        -0.07554485648870468,
        -0.035636547952890396,
        0.016634585335850716,
        0.6162499785423279,
        0.22864730656147003,
        -0.025315264239907265,
        -0.13121169805526733,
        -0.23101168870925903,
        -0.19234976172447205,
        0.23509351909160614,
        -0.14009150862693787,
        0.08235286176204681,
        -0.14862816035747528,
        0.680341362953186,
        -0.2503385543823242,
        -0.26754629611968994,
        0.4899831712245941,
        0.4391348659992218,
        -0.7834060192108154,
        -0.16811591386795044,
        0.05933237820863724,
        -0.2697354257106781,
        -0.5043925046920776,
        -0.0035852878354489803,
        -0.5577351450920105,
        0.18233829736709595,
        0.399400532245636,
        -0.009142058901488781,
        -0.05540497228503227,
        -0.669313907623291,
        -0.06023169308900833,
        0.12321960180997849,
        -0.5321835875511169,
        0.03512948378920555,
        0.09339842200279236,
        0.6141374707221985,
        0.11826092004776001,
        0.14172804355621338,
        0.11799692362546921,
        0.04421563073992729,
        0.023661980405449867,
        0.215611532330513,
        0.2994680106639862,
        0.07090878486633301,
        -0.2630368769168854,
        -0.5921692252159119,
        0.2861429452896118,
        0.09047992527484894,
        -0.2831847667694092,
        -1.225386381149292,
        1.1188932657241821,
        -0.20981810986995697,
        0.019999999552965164
    ]
}